973 300
인스턴트커피 -0.06554573 0.28828394 0.24010003 -0.28113493 -0.05421939 0.19799295 -0.1905752 -0.12903473 -0.32472086 0.1326899 -0.09542459 0.05581834 0.041634955 0.014040511 -0.11274692 -0.10778538 0.046327632 0.044961326 0.11187783 -0.11176012 0.03391264 -0.084024735 -0.28196427 0.12037345 -0.25126633 -0.19444847 0.09648314 -0.18163669 -0.3481859 -0.045058418 0.084114574 -0.07443332 -0.054346554 0.0024443031 0.0602654 0.13631348 -0.025172893 0.2877526 -0.056286514 -0.083414964 -0.013547607 -0.16430151 0.085729614 -0.30625674 -0.02998506 0.18342201 0.06796614 0.10430652 -0.055452432 -0.20091261 -0.19393632 0.23398486 0.09068442 0.02078884 -0.092971265 0.053956095 -0.16649333 -0.0715272 0.15374838 0.03253066 -0.35603532 -0.08776514 -0.066211835 -0.11950899 0.17669685 0.042956494 0.031533103 -0.041638434 0.09768166 0.2243217 -0.07953234 -0.053496577 0.18870467 -0.070652604 -0.21984342 -0.38562903 -0.04938679 0.20515004 -0.06861204 -0.20876662 0.34025955 -0.041988637 0.1311622 0.057359587 -0.019624168 0.11491039 0.21574724 0.27403337 -0.019793786 0.08841232 0.1802455 -0.12079517 0.17096424 0.096316464 -0.075565346 0.11715671 -0.33898804 0.17395236 0.12952623 0.20426269 0.26890525 0.13433133 0.19496204 -0.037549544 0.0107265385 -0.22915833 -0.2768486 0.009738914 -0.19017373 0.24223833 0.11791037 0.20484555 0.18847188 -0.03672236 0.054155614 0.028179798 -0.2795476 0.15323715 0.13021417 -0.112886995 0.07070615 -0.039672624 0.07775271 -0.22987367 -0.015055319 -0.29670775 -0.15170789 0.081800826 0.19734311 -0.071366794 -0.08851311 -0.029122138 0.0044498197 -0.19903891 -0.19837636 -0.15185143 0.29283231 0.284665 -0.2399756 0.12067628 -0.26646546 -0.04815148 -0.062661 -0.07772118 0.11063301 0.0017901373 0.17973876 -0.049880132 -0.013405924 0.065103255 -0.1463895 0.15436803 0.17717057 0.095191345 0.06182827 0.003819392 -0.2932386 0.025291925 0.3878645 0.14270264 0.13486232 -0.050063983 0.073146716 -0.38312072 -0.07298462 0.28176934 0.11276939 -0.009576211 -0.091409154 -0.1564199 -0.017800702 -0.3803582 0.07183996 -0.21628237 -0.17489167 -0.15006115 -0.20646536 -0.033175856 -0.08022087 0.009779414 0.23637274 -0.097250365 -0.0792246 0.04519065 -0.025203694 0.45786637 -0.1008056 0.1295839 -0.21301907 0.00557072 0.2536442 0.050591778 -0.08888421 0.29147607 0.23860379 -0.14904058 0.15540515 -0.20732127 0.02329006 0.26739383 -0.021154355 0.13671474 -0.04489652 0.18365234 0.015204638 0.01570716 -0.08123702 -0.07052652 -0.2446101 0.0017476737 0.2519634 0.37638605 0.07118046 -0.11423351 0.019139005 0.1734556 -0.27478716 -0.06616991 0.08954737 0.4126448 -0.13212855 -0.021864993 0.042727217 -0.22776732 -0.13604072 -0.14928775 -0.0017162735 0.12699018 0.18051122 -0.20645632 -0.14858389 0.25313094 -0.0798287 0.22562857 0.014467648 -0.06408127 0.06372819 -0.06613277 -0.16649362 -0.18763985 0.012171885 0.0063296244 -0.17928125 0.20938008 0.23991609 0.12588121 0.091008656 0.19918407 0.06564998 0.32771254 0.05470956 0.015688477 0.07238283 -0.1664202 -0.022959284 -0.2071345 0.047234084 -0.014306199 -0.15248144 -0.18083732 -0.08677381 -0.026746586 -0.10636516 -0.028540233 -0.043199506 -0.06959052 -0.08637762 -0.35869867 -0.08938419 0.31055275 -0.14724132 0.011926165 -0.18220505 0.23922989 -0.3254347 0.042553175 0.004250918 -0.0858236 -0.045974944 -0.118299775 0.15437524 -0.20564556 -0.116115354 0.07679544 -0.02176839 -0.20115483 -0.112134084 -0.024283865 0.030637633 -0.013747713 -0.14810438 0.23698442 -0.03973476 -0.0436423 0.15392263 0.35674506 -0.083789274 0.07059912 -0.11516235 0.23132907
케이블 -0.04036061 -0.044535678 0.3506544 0.13062438 -0.13079628 0.12592852 0.002345376 -0.012323787 -0.3275133 0.12616709 0.0010277119 0.03761122 0.045902986 -0.114383586 -0.48482865 0.017541703 0.19141796 -0.0852996 -0.029167183 -0.27555788 -0.02229963 -0.35219276 -0.02614605 0.15586872 -0.09171643 0.052563593 0.2102774 -0.06279698 0.1855752 -0.10505901 0.10802123 0.11379313 -0.116076656 -0.15431033 -0.08674644 -0.16080977 0.13616173 -0.046650607 0.19680902 0.04135811 -0.12276203 0.017868249 -0.42200583 -0.12025829 0.056952626 -0.060253292 -0.082850136 0.20603491 -0.16068275 -0.10262223 -0.03837417 -0.16436164 0.08007436 -0.098933764 -0.047302734 -0.2573536 0.06461648 0.02086714 0.12904802 -0.041725755 -0.15547362 0.34443557 0.037373938 -0.022268588 0.029247824 0.17534234 -0.11168862 0.15169074 -0.24151151 0.3008075 0.014973969 -0.01684644 0.31827912 0.1586766 0.0014662837 -0.048959907 -0.16544375 0.05504421 0.039906785 0.2141233 0.44385278 0.23931351 0.08860278 0.090293206 -0.09048911 0.04710263 0.15337859 -0.025438828 -0.25558734 0.2666287 -0.19803369 -0.00649091 0.12766303 -0.08778217 0.022389097 -0.002803608 -0.026564658 -0.03285402 0.20767896 0.17289065 0.09953089 -0.16106425 0.083546534 0.12769103 -0.17633103 -0.0006250264 -0.05755166 0.12883894 -0.28512576 -0.3224074 0.12871051 0.11524418 -0.06892614 -0.16376148 0.19567865 0.029227262 -0.25023994 0.46417594 0.20270078 -0.022616647 -0.0353511 0.026184341 -0.1829488 -0.4217053 0.10241282 -0.019123169 0.005180775 -0.12447175 -0.17949654 -0.16667199 -0.15062745 -0.15592559 -0.090117194 -0.09590541 0.06347387 -0.14571607 -0.0646933 0.11566491 0.0042672474 -0.033072803 -0.17613266 -0.13045278 -0.27189764 -0.15407494 0.005193841 -0.21262613 -0.1418166 -0.10490469 -0.12422476 0.3106265 0.23524542 0.12781769 -0.00840238 -0.064602956 0.2988262 -0.06693557 -0.04601922 -0.14994732 0.15482919 0.06710627 -0.056498993 0.20046325 -0.21194406 -0.13224049 -0.15993017 0.13605191 -0.17894012 0.26479524 0.17701517 0.014369686 0.08677064 -0.14997381 0.13133974 -0.22523135 -0.25345492 0.09201451 -0.2708477 -0.32629964 -0.23036444 -0.121164046 0.43059462 -0.10698468 0.15445212 -0.0956698 -0.08094669 0.07229744 0.10991184 0.09206006 -0.022837149 0.1415668 -0.0355607 -0.022170234 -0.17793368 0.41243178 0.35943404 -0.12543188 0.091590896 0.15049447 0.1995136 0.12579256 -0.023461897 0.014370553 0.14106242 0.27201086 0.31530562 0.073353425 -0.09990565 -0.080412 -0.52281356 0.08094328 0.28656113 0.056908388 -0.22572692 -0.41979697 -0.33990398 -0.09147935 -0.43632615 -0.08973121 0.052544683 -0.028443689 -0.10862796 -0.25456697 0.28350985 -0.10613437 -0.11822645 0.053572915 0.11785089 -0.078976326 -0.072726965 -0.0663453 0.04952081 0.18512663 -0.003557166 0.3025719 -0.017758433 -0.326618 0.14435717 -0.009568148 -0.22980036 -0.1699471 0.19544156 0.0656488 0.108290784 0.014267129 0.1755035 -0.23087671 -0.23250215 -0.12429817 -0.13033304 0.19844237 0.09517314 -0.2737949 0.085344225 -0.07160921 -0.11223481 0.008810552 -0.07164567 0.12625644 0.18092555 -0.15512942 0.007902622 -0.043590836 0.11476343 -0.16701117 -0.0074259313 -0.17667067 -0.112814784 0.16422401 -0.1741427 0.16179904 -0.08265813 -0.26993275 0.06748064 0.00081488997 -0.07348681 0.11479792 -0.018793728 0.12681653 -0.1007638 0.04779193 -0.0015243258 -0.225648 -0.28830636 -0.30951068 0.0502856 -0.50362617 0.1868361 0.12763801 -0.0203807 0.15930225 -0.105366565 0.40240857 -0.14097266 -0.34409264 0.23084852 0.18529883 -0.07238131 0.07431853 -0.049713 0.23846686
종이컵 -0.017531326 0.03674097 0.32287836 -0.19446538 0.08584576 0.18317007 -0.20250465 -0.12883891 -0.09796918 -0.06085368 0.0045884596 -0.09001829 -0.063451976 0.07483871 -0.08080226 -0.194893 0.14624152 0.0019460253 -0.13362888 -0.17699395 0.23245583 -0.13797525 -0.040681496 0.13916999 -0.14675374 -0.17501494 0.076871514 0.0081482325 -0.31915507 -0.04938975 0.050554685 -0.06860079 -0.12655166 0.022720383 0.15207309 0.17825639 0.15578103 0.24701819 -0.14647189 0.14715755 -0.08515847 0.08155245 -0.10706999 -0.24758343 0.028041303 0.18851526 0.10781263 0.15195964 -0.09460329 0.08747221 -0.06989132 0.07627513 0.017337639 -0.17970747 0.08549259 -0.024183583 -0.18878935 0.010271966 0.35242048 0.007196416 -0.29446614 0.34444252 -0.07529913 0.030494398 0.39004153 -0.07176377 0.1174315 -0.075664766 -0.05456315 0.3034499 -0.035030276 0.1725333 -0.0047567314 -0.12715343 -0.19854048 -0.16496816 -0.19294651 0.07614602 0.049322736 -0.33840743 0.22668935 -0.15700895 0.03148508 0.05324357 0.053632934 0.19039863 0.14077146 0.17081103 -0.15456992 0.3188255 0.012600315 -0.10192447 0.14671408 -0.017467706 -0.13395679 -0.025864407 -0.23058358 0.21056102 0.11924367 0.16848122 0.053973045 0.092128575 0.09939768 -0.022885608 -0.0896898 -0.3765271 -0.16423179 -0.04168154 0.13267471 0.077817924 0.13192824 0.25289133 0.16638257 0.0021020737 -0.00031912886 -0.10767376 -0.2076401 0.13357972 -0.039429225 -0.14617771 -0.09726209 -0.09113573 0.029011013 0.023267135 -0.014860423 -0.25552526 0.03874657 0.041661296 0.22182289 -0.038149912 0.13232607 -0.18135923 -0.09862718 -0.11639297 -0.00031607941 -0.08839205 0.12239218 0.13961774 -0.2552583 0.017666422 -0.25784728 0.131558 0.04725771 0.002799608 -0.051047154 0.044832118 0.19001207 -0.09663394 0.0033758972 -0.26637894 0.061180834 0.15230997 0.051358033 0.2857751 -0.05674332 0.17964226 -0.056649104 -0.05586404 0.3713932 0.14760223 0.2583204 0.019530376 -0.045290958 -0.28436494 -0.0050171576 0.2841524 0.04965928 0.06818713 -0.16010953 -0.15541764 -0.116814 -0.21914317 0.04160006 -0.1285406 0.015202465 -0.30227336 -0.25314513 -0.18304798 0.0008775278 0.11000696 0.028636122 0.0679245 0.061915483 -0.07882225 -0.0931941 0.2842891 -0.15377025 0.09975045 0.1290566 -0.06543481 0.12286976 -0.066615134 -0.10517167 0.37942213 0.20166394 -0.09101043 0.31396085 0.018916627 0.04070772 0.20011498 0.06662733 0.13308114 -0.073643014 0.13757026 0.031210314 -0.0025687632 -0.048181653 0.04505829 -0.23865564 0.09548836 0.19157828 0.3724604 0.04861991 -0.08141902 -0.034641203 0.17273147 0.02306755 -0.14484254 0.09488565 0.37867412 -0.03199209 0.11968494 0.087450996 -0.17176929 0.052424066 -0.08602287 -0.16124749 -0.14982228 0.007440178 0.026651379 -0.14961626 0.0222781 0.17284748 0.22305673 -0.1013961 -0.2209599 0.12836824 -0.121401384 -0.04838467 -0.15916958 -0.008342778 0.13079926 -0.0149845015 0.2302635 0.20309609 -0.05328458 0.17248008 0.020021923 -0.012231507 0.22622102 0.10915483 0.024071889 0.15833063 -0.095958635 -0.11304465 -0.23135921 -0.041655164 -0.21597812 -0.037421044 -0.081317276 0.19206095 -0.026818352 -0.1316863 -0.0006460533 0.12504543 -0.10365885 -0.051986504 -0.1264021 -0.04799775 0.1777163 -0.040835507 -0.22825022 -0.02995719 -0.0031211749 -0.049345393 0.11793935 0.0025026402 0.009855421 -0.06864022 0.1475531 0.068509996 -0.32120565 -0.10466086 -0.033119787 -0.16662386 -0.19421285 -0.062245775 -0.037971642 0.19190237 -0.061717562 -0.26122168 0.24282964 0.055683605 -0.21992083 0.12846598 0.11259067 0.06853351 0.10468431 -0.05478642 0.15686491
물티슈 0.081708275 0.20453928 0.24263911 -0.13884632 0.0037121358 0.016279394 -0.030803286 -0.05211438 -0.09911618 0.05661543 -0.12709817 -0.073114485 0.017177524 0.053200755 -0.050500568 -0.026877558 0.0810548 0.012607546 0.07504447 -0.09883695 0.15840314 0.021322742 -0.06176584 0.010755764 -0.14874093 -0.19143993 0.14850895 0.039398298 -0.14650168 -0.055976875 0.029016303 -0.19612986 -0.00039411866 0.0145552065 0.06923105 0.09886006 -0.15219638 0.21751072 0.0008832765 0.2577281 0.030508513 0.0699536 -0.24561556 -0.056738254 0.031154301 0.20775935 -0.06236539 0.17528257 0.053365793 -0.046783436 0.050879095 0.16093099 -0.011720668 -0.07059269 -0.01835286 -0.22081856 -0.036755912 0.053517878 0.14832506 0.060773436 -0.27877897 0.11394721 -0.036139153 0.004107897 0.22476433 -0.18966167 0.087909065 -0.14728598 0.06746349 0.07814546 0.04018991 -0.00022816836 0.046301648 -0.096210405 -0.13915454 -0.15539555 -0.12493968 0.09901437 0.021761926 -0.20797686 0.13689893 -0.05565515 0.22782157 0.029424867 -0.110676795 0.025737196 -0.007988131 0.066022806 0.009414841 0.061712813 0.13174719 -0.1542607 -0.050221574 -0.13053511 -0.07675818 0.032276414 -0.09794287 0.062651314 0.10845015 0.101103194 0.07989214 -0.027391719 0.0874707 -0.07518304 -0.019048762 -0.07175361 -0.10493969 0.03468638 0.11316652 -0.116107985 0.11040548 0.066776335 0.02580186 -0.025607673 0.014301081 0.20241919 -0.2371432 0.146655 0.108709045 -0.08193954 0.05184989 -0.16689676 -0.108629845 0.055474322 0.14750221 -0.073385514 -0.18839955 -0.061937824 0.056881376 -0.0023700434 -0.13690564 -0.053837292 -0.11481971 -0.109083876 0.115111336 -0.11004367 0.20369586 0.11561284 -0.15370606 -0.05378896 -0.063126005 0.11587146 0.0463523 -0.10872834 0.034291536 0.07726457 0.032645304 -0.04652874 -0.16909538 -0.17324251 0.010740332 0.17443424 -0.021592783 0.28052366 0.0030930177 0.15489379 -0.0076519903 0.0075487383 0.1234405 0.1134705 0.12744729 0.09964835 -0.121027336 -0.123498395 -0.021553393 0.22924177 0.15670101 -0.03179438 -0.05792411 -0.050540533 -0.036591534 -0.26834285 0.017817404 -0.19071935 -0.16335285 -0.11008106 -0.26715213 -0.18799658 -0.0779293 0.14957894 -0.02823454 0.13329557 -0.06818735 -0.02662481 -0.094021894 0.20752567 -0.1570139 0.09155097 -0.18968706 0.06260579 0.07199926 0.14414164 -0.15962347 0.24224372 0.10295934 -0.12434385 0.1659239 -0.08393772 0.08919671 0.1194469 0.14207742 0.106571056 0.09277579 -0.023686077 -0.15200926 -0.0325569 -0.07490735 0.07357427 -0.20103805 -0.08943868 0.24179816 0.12925379 -0.0007970295 -0.12687913 -0.06190916 0.15643534 -0.026262207 -0.36478576 0.1756534 0.18952173 -0.09962774 0.004437156 -0.02410417 -0.14408232 -0.09569285 -0.05216039 -0.07289274 0.013192008 -0.0020264303 0.12748206 -0.032133423 0.16103645 0.1644141 0.13628587 -0.044603784 -0.049496274 -0.020865714 -0.117778994 0.09369385 -0.043553006 0.0358475 0.06792462 0.013166276 0.21582645 0.1373695 -0.12836884 0.008765599 0.012334355 0.026992615 0.13709752 0.09788199 -0.14069082 0.04088653 -0.055217948 -0.07547772 -0.18519421 0.13506772 -0.042164277 -0.06309355 0.005002393 -0.07551186 -0.07119805 0.09126244 0.09510685 0.013178646 -0.031636246 -0.032759495 -0.1197711 -0.15895396 0.26222247 0.034257237 -0.15212715 0.015947111 0.08720382 -0.16576952 0.15910283 0.09415464 -0.14649169 0.04360242 0.15157999 0.0804062 -0.15282135 -0.26160854 0.18588509 -0.014812242 -0.09951434 0.052871898 -0.025380585 0.062975496 0.0341359 -0.08280044 0.20054944 -0.057242874 -0.15976939 0.13310231 0.17863008 0.058704898 0.002811804 0.037855893 0.21260647
복사용지 0.024387546 0.080236256 0.34799796 -0.32696033 0.022279145 0.05100138 -0.14962764 0.05751427 -0.30932337 0.0885587 -0.11945432 -0.06860716 -0.018722696 0.114598334 -0.047060348 -0.02130732 0.19203037 0.090917885 -0.1300985 -0.2319803 0.07634264 -0.14160407 -0.10249797 0.12359996 -0.1553165 -0.08495833 0.1262589 -0.014376971 -0.29618216 0.07872572 0.11755577 0.0061595454 -0.18730378 0.11140986 0.055836353 0.07447924 0.10976848 0.3140886 -0.02793295 0.09070425 -0.112947375 0.002873441 -0.17599216 -0.23952872 0.12147183 0.23988906 0.03462565 0.12881674 -0.12090419 -0.090026006 0.060064312 0.108141966 0.12612675 -0.008937099 0.03454814 -0.18904161 -0.07816226 -0.07141359 0.21929257 -0.035428554 -0.31623104 0.33475676 -0.020913348 -0.06123141 0.27064362 -0.032846276 0.0758753 -0.11180942 0.041611776 0.3323829 -0.1177054 0.112726636 -0.046557866 0.05932714 -0.26856595 -0.14496204 0.043838255 0.11516572 0.0552212 -0.26121685 0.22730808 -0.11949271 0.17317563 0.12361415 -0.063372135 0.17795552 0.10893662 0.09427804 -0.19573641 0.19484895 0.08488752 -0.08533519 0.050451472 -0.16826726 0.026250223 0.040113926 -0.26962787 0.19846159 -0.024503112 0.15773486 0.19054055 0.14756322 0.15815343 -0.05180344 -0.054187596 -0.3973128 -0.19959843 -0.018412713 0.017834492 0.12681693 0.08844165 0.26019964 0.13725512 -0.07321245 -0.11672952 -0.053016517 -0.30309904 -0.01351671 0.08124655 -0.09819585 -0.0971588 -0.20194449 0.12230409 0.0015586548 0.1814025 -0.21400659 -0.050137732 0.099795446 0.08903376 0.00055310223 0.022691699 0.077175595 -0.1665381 -0.102498665 0.029296208 -0.1444645 0.17102104 0.20317245 -0.17115203 0.08913187 -0.24317952 0.02450702 0.067128316 0.007452196 -0.042479925 0.08235779 0.20513202 -0.133047 -0.17052478 -0.044629756 0.1293426 0.1778009 0.2037239 0.25321808 0.14541796 0.20865844 -0.20681264 0.070977494 0.36721867 0.18429123 0.2306814 0.01052871 -0.23270012 -0.25647777 -0.000316748 0.33312726 0.07128005 0.016254097 -0.32030734 -0.046660766 -0.053219877 -0.2202748 0.0064180563 -0.16896752 -0.025814291 -0.11917584 -0.17085013 -0.17054829 0.041185264 0.118187316 0.101780154 -0.03956196 0.20569086 0.053784885 -0.13919663 0.37396562 -0.16992185 0.11541041 -0.019057192 -0.07432796 0.050423656 -0.01376451 -0.046409383 0.371808 0.27100784 -0.09495267 0.22064646 -0.10614619 0.21951422 0.16737415 0.07162892 0.07130116 -0.1357795 0.013372345 -0.12620278 0.06399196 -0.07998243 0.078655116 -0.12027166 -0.03912662 0.05857363 0.32256407 0.12496508 -0.045536403 0.14176057 0.107324265 0.03836154 -0.22779298 0.14747351 0.23812483 -0.039350007 0.12349118 -0.13884537 -0.07922564 -0.043940015 -0.15292728 -0.13893664 -0.0957078 0.032851487 -0.06837427 -0.13761377 0.13144895 0.052372992 0.1975139 -0.12567854 -0.1417597 0.15604687 -0.081786156 0.04592472 -0.1389678 -0.11096302 0.08002901 -0.13459395 0.18695301 0.24802822 -0.047022335 0.08957507 0.23813848 0.060698826 0.15832597 -0.059053212 0.012401435 0.06549011 -0.120374 -0.10600984 -0.024635386 0.1640195 -0.21601303 -0.048929185 -0.09055034 0.16069494 -0.13709262 -0.0730923 0.014795123 0.09140625 0.03768313 -0.013688063 -0.032079756 -0.016997317 0.34286997 -0.017511351 -0.06310472 0.05606382 0.1521643 -0.017053697 0.12748648 -0.0055344305 -0.07056729 -0.1017531 0.20742148 0.04623791 -0.31780362 -0.07912972 -0.025154525 0.0041520223 -0.24401371 0.03189034 -0.022419743 0.09399442 -0.16149645 -0.29810876 0.14561492 0.030757504 -0.2354708 -0.0424828 0.32192975 -0.11482486 0.15454638 -0.010777296 0.29333457
건전지 -0.010431917 0.30715072 0.29536766 -0.20629609 0.14696439 -0.13326715 -0.19318424 0.01879022 -0.081627674 -0.034189705 0.05025401 -0.043328665 0.18881907 -0.02291884 -0.14380988 0.15102561 -0.110841736 -0.019515848 0.12980089 -0.17390339 0.06937416 -0.06444146 -0.0071646417 0.15069082 -0.14358844 0.032279186 0.19936724 -0.10727354 0.015172153 -0.058721326 0.013834764 -0.09538447 -0.079405315 0.11518568 0.021783536 -0.018818667 0.018976938 -0.03962752 0.015667763 0.16926499 0.08558922 0.025318176 -0.1674359 -0.26218885 0.117134616 0.30681464 -0.0895816 -0.031875394 0.0384987 -0.023627449 -0.05763593 0.055407725 -0.08242011 0.045239568 -0.08085249 -0.1629481 -0.049737733 -0.05701381 0.005058457 0.060847428 -0.24941865 0.027701985 0.0417477 -0.05749044 0.2045338 0.066580065 0.25159588 0.06811204 0.01593913 0.09487157 0.12192207 -0.09212815 0.08034517 0.073944904 -0.21906793 0.012438418 -0.21531644 0.05502592 0.13981761 -0.12860602 0.423292 0.02160108 0.15334763 -0.0101817725 0.07304985 0.17016126 0.15688314 -0.054944377 -0.062861286 -0.008264461 0.02074436 0.05695907 0.22773692 0.06641699 0.06567465 0.018176988 0.023797035 0.14838374 0.15595263 0.13876484 0.062867366 0.026803933 0.1538426 0.026687862 -0.1739327 -0.10569267 -0.066061206 0.11356122 0.043153115 0.28502795 0.0494626 0.31178617 -0.040778834 -0.018004706 -0.17957583 0.09231258 -0.041447435 0.06963258 0.101502426 0.055035688 -0.028267441 -0.027631572 -0.017337462 -0.06615978 0.13279665 -0.015691979 -0.28147292 0.20280999 0.0022723344 0.10216861 -0.09737892 -0.069740236 -0.012993634 -0.1501915 0.1216798 0.1445961 0.23216487 0.08045968 -0.018983537 0.023180874 -0.047450654 0.1363908 0.056369554 0.012622577 -0.03933665 0.07509376 0.030801227 -0.052805655 -0.051739667 0.046282563 0.028977113 0.0782153 0.13045502 0.030226907 0.09960177 0.008835746 0.025411613 0.16928649 0.29659534 0.0056580584 0.058533892 -0.19950259 0.14870672 0.041328043 0.032136235 0.068883136 0.014277624 0.06365624 -0.12718572 -0.20130607 0.0436673 -0.009556092 0.09713752 -0.3214546 -0.103623286 0.08749652 -0.07472916 -0.10631085 0.036593057 0.09236263 0.07816535 0.014589631 0.030908251 -0.09196419 -0.060210086 0.08031258 -0.11768085 -0.20351738 -0.19568102 -0.056865696 0.00910094 -0.013228259 -0.046961486 0.065784976 0.1521447 -0.1547048 0.18002112 -0.0463065 0.16955419 0.054802462 0.11297742 -0.018915046 0.0749349 -0.15359774 -0.14326037 -0.022649527 -0.09729785 -0.105073035 -0.06997312 0.029199421 0.061705627 0.1556054 -0.104868405 -0.041506853 -0.04498628 -0.037649028 -0.29564005 -0.11944729 0.07179941 0.029014245 -0.122424714 0.036495958 0.18657994 0.002403406 -0.090503596 -0.029041972 0.028832436 0.078817815 0.10773188 -0.07847346 -0.030812629 0.042964917 -0.09607263 0.11978705 -0.15970227 0.012994705 -0.008292347 -0.13047636 -0.16610493 -0.15441862 -0.10728184 0.027616885 -0.047772747 0.0012780235 0.03352259 -0.005642814 -0.1886286 0.08126587 -0.13182603 0.055053078 0.043246496 -0.017626524 -0.069468975 -0.1760642 0.0017580059 0.11608313 -0.09155493 0.10093193 0.03118821 -0.11013825 -0.17883426 -0.14935036 -0.058189474 -0.17042017 -0.02863154 -0.21221735 -0.03765582 -0.11067788 0.13235687 0.23678845 0.035182204 -0.27699172 -0.093847625 -0.09524878 -0.14244331 0.08351069 0.08339997 -0.14409335 -0.024003522 -0.0016452374 0.11431357 -0.088978395 -0.09837821 0.16470996 -0.020979607 -0.34220126 -0.1546119 0.18690735 0.22949038 0.12953669 -0.108850606 0.21625215 -0.1244479 -0.20021331 0.11671039 0.0104315225 -0.13111305 0.062868364 0.005110837 0.33317292
티백차 0.006047466 0.15012068 0.23805709 -0.1860134 0.065783076 0.012823895 -0.04536661 -0.21573007 -0.18240234 -0.005845209 -0.06648546 0.122644305 -0.07814056 0.028818607 -0.11958601 -0.25841877 0.07448555 0.0261592 0.05951063 -0.32256958 0.015755363 -0.014141327 -0.23807167 -0.008979352 -0.1473625 -0.265963 0.13198376 0.06541892 -0.26466417 -0.24677527 0.05081093 -0.09458732 -0.03993137 -0.0055209463 0.09065377 -0.07315311 0.045388747 0.18727008 -0.035561744 -0.0027216508 -0.13193278 0.092258945 -0.15919895 -0.0399075 -0.12523267 0.1700244 0.053967476 0.22561724 0.005344463 0.0067186463 -0.02073958 -0.055972755 0.011234849 -0.10310354 -0.08760858 -0.17342861 -0.13841441 0.002971935 0.28996035 -0.075730935 -0.43577844 0.23710126 -0.23207077 -0.02647678 0.3400947 -0.20804176 0.048757713 -0.11798006 0.1617535 0.27570793 0.07544358 -0.05153438 -0.044565976 -0.045648523 -0.0931078 -0.28730533 -0.057853024 -0.02957841 -0.17434289 -0.29475766 0.43027234 -0.2835736 0.13302882 -0.07662157 -0.07959555 -0.03026832 0.061166506 0.2648531 -0.09577996 0.24218579 0.32466996 -0.16422105 0.06892232 0.08375444 0.13339952 0.09420779 -0.23871423 0.13076329 0.100741856 0.26106015 0.12267675 0.0057446756 0.067001924 -0.13316087 -0.15027514 -0.18886341 -0.29065117 -0.014250339 0.0986786 0.06602414 0.061572857 0.2521175 0.23014209 -0.034723047 -0.036091086 0.035696696 -0.26098895 0.4190029 0.047772855 -0.14378549 -0.04593404 -0.30069876 -0.087223165 -0.021371035 0.09950652 -0.132127 -0.00022778347 -0.12998609 0.17616944 -0.21178693 0.046280116 -0.079887085 -0.1798998 -0.21530338 0.020996403 -0.19789335 0.34406167 0.26688507 -0.23444298 0.037548468 -0.24420148 0.05346819 0.036008842 0.05048309 0.0035745664 0.17953157 -0.05567537 0.021500206 0.033120237 -0.066008374 -0.012501908 0.07132977 0.035100114 0.22055154 0.09389631 0.08708465 -0.11128498 0.10576714 0.36716178 0.1355053 0.09389619 -0.034036893 -0.25408363 -0.35699344 -0.13126716 0.1466482 0.18421395 -0.14500043 -0.045706406 -0.18845074 -0.12511495 -0.24490756 0.0016021505 -0.35692862 -0.26449528 -0.16053481 -0.3354038 -0.10583444 0.004798759 0.059209768 0.096288145 -0.12194439 -0.16369383 0.113024935 -0.05688385 0.26316398 -0.2849381 0.23370382 0.08455531 -0.008153689 0.10893837 0.11339776 0.014747304 0.30606267 0.06864372 -0.034967087 0.34233764 0.05302382 0.084793225 0.19767927 0.096648894 0.116032936 -0.21556912 0.048968494 0.027946318 -0.09909464 0.04874955 -0.10578493 -0.34652963 0.07889233 0.3081137 0.095423326 0.17677657 -0.1176407 -0.29184803 0.19800621 -0.116816536 -0.30134797 0.17758983 0.264095 -0.030258216 0.095927656 0.0019396439 0.06520011 -0.056896057 -0.080013245 -0.13848427 -0.18806697 0.07241708 0.051116657 -0.18564908 0.014300361 0.075430796 0.05823976 -0.004718525 -0.3079307 -0.10609105 -0.006287209 -0.09952998 0.054537944 0.08339995 0.11210036 -0.05243246 0.37940985 0.15266153 -0.007633994 -0.06461618 0.17023581 -0.11185016 0.18963996 -0.02882886 -0.25559786 0.099119164 -0.0074916007 -0.086765856 -0.14289188 0.15860294 -0.23537032 -0.13236159 -0.012292827 -0.0055742683 -0.15425476 -0.114072345 -0.025181264 -0.086627506 0.010540241 0.059034158 -0.40185234 -0.18036324 0.44639444 -0.059990466 -0.12548146 -0.10731638 0.030440355 -0.17023946 0.066150226 0.17334072 -0.06775312 -0.066865824 0.055601474 -0.008352032 -0.35873103 -0.24620593 0.25031278 -0.09804561 -0.1645367 0.1292944 -0.09312907 0.14564781 0.1590865 -0.13409844 0.34857404 -0.052195083 -0.29760268 0.28031558 0.24143516 0.033013772 0.05712028 -0.1151637 0.21694979
생수 -0.023239203 0.24407792 0.24194807 -0.16670167 0.03313307 0.010350881 -0.10053014 -0.16196758 -0.09700638 -0.10266095 -0.051228072 0.09982157 0.078004986 0.006316942 0.01614997 -0.2677125 0.06572474 0.052961666 0.05880013 -0.1484221 0.13431498 -0.0768401 -0.19042183 0.10319843 -0.23144838 -0.23220387 -0.031945433 -0.037373915 -0.18311253 -0.1904419 0.007221553 0.048031654 -0.09166644 0.025629923 0.14452623 -0.11564251 0.053985942 0.13570939 -0.03253413 0.07514447 0.008260539 0.10725649 -0.084597655 -0.16906814 -0.018612469 0.15381263 0.12700067 0.22631505 0.032315455 0.01511923 -0.016855028 0.13936673 -0.02509993 -0.09036771 0.0029206167 0.060990848 -0.17190085 0.018061342 0.29003784 0.009236928 -0.3538908 0.083289914 -0.22417231 -0.080268815 0.32019943 -0.06868487 0.13958186 -0.05210532 -0.028677724 0.04569038 0.009576847 -0.10745709 0.082675934 -0.09701916 -0.094296366 -0.28666973 -0.13450642 -0.01940324 -0.0104378285 -0.32233134 0.26472852 -0.11383792 0.033760365 0.06734714 0.058494974 0.16406988 0.0038393817 0.0885479 -0.018369203 0.30673578 0.32550701 -0.16929871 0.14764366 0.1445992 -0.04489504 -0.062197745 -0.30808732 0.15800603 0.13040647 0.29361555 0.10036469 -0.048001356 0.08456488 -0.07746324 -0.10536459 -0.14735864 -0.17634048 -0.040343374 0.054736573 0.076617084 0.091161296 0.17893672 0.108349934 -0.041418113 0.14485493 -0.009708879 -0.1404601 0.32778627 0.08581842 -0.18972558 0.099100694 -0.13966446 -0.0384187 0.0030220542 -0.036434945 -0.121974826 0.0008609866 -0.07082991 0.13366744 -0.11576599 0.2258846 -0.12258906 -0.13070749 -0.017715773 0.07195004 -0.16906668 0.08119826 0.12972958 -0.14194088 0.0028764165 -0.12685597 0.107508615 0.020419605 -0.024398746 0.15485373 0.14208218 0.07357368 -0.075133055 0.09932557 -0.049524456 -0.021936033 0.07410583 0.040657837 0.16026051 -0.10731582 -0.040214624 -0.1283211 -0.017900027 0.37261474 0.06472372 0.21543826 -0.024147088 -0.025997406 -0.22501563 -0.03175625 0.13852568 0.18406133 0.04638314 -0.105667576 -0.23414838 -0.15483251 -0.27653068 0.10837385 -0.17783898 -0.17903855 -0.2518062 -0.22315927 -0.16747084 -0.101261616 0.13055703 0.05837223 0.06405523 -0.12944166 0.018276202 -0.0060460283 0.15969238 -0.12075116 0.13968979 0.028753472 -0.08501654 0.1842625 0.03799687 -0.07463268 0.28695163 0.20416509 -0.0071450677 0.22344875 0.015761424 0.035449278 0.27001342 0.015180463 0.16983019 -0.13662794 -0.03212394 0.006187878 0.0010753736 -0.062503524 -0.061518162 -0.19513047 0.039110076 0.37743616 0.14265211 0.11777894 -0.0140315285 -0.15621611 0.20300932 -0.09217366 -0.25462046 0.052165195 0.31956205 -0.040594168 -0.05006869 0.035956003 0.026689341 -0.043713424 -0.09248784 -0.0462896 -0.08357814 0.032704953 0.06822001 -0.10321007 0.14096604 0.10357304 0.17981891 -0.115569845 -0.17885458 -0.035591662 -0.037711527 -0.035621427 -0.08736571 0.06581035 0.0052958233 0.0424528 0.17434351 0.06806073 0.07141682 0.14145939 0.042963192 -0.07472842 0.29836428 0.0593777 -0.08648218 0.10079272 -0.14036652 -0.1473065 -0.13671559 0.034504425 -0.15960418 -0.17928691 -0.027913826 0.06302411 0.038407773 -0.14980154 -0.077949904 0.081900045 -0.1566005 0.11011488 -0.30721757 -0.022813167 0.26880097 -0.011702816 -0.1272904 -0.111685626 -0.088111475 -0.33747342 0.0106689045 0.084981754 -0.032477736 -0.065157354 -0.1303146 0.015367003 -0.2949329 -0.1894996 0.0911406 -0.11572296 -0.25039926 0.0029917285 -0.071363956 0.19948125 0.065053724 -0.0003777863 0.31113768 -0.0102863945 -0.32724503 0.08345058 0.062150292 0.020490771 0.10127637 -0.087960005 0.237556
명함 0.08017447 0.092844516 0.231108 -0.1455478 0.053659245 0.017550314 -0.06828173 -0.104322754 -0.27128124 0.035348833 -0.19036664 -0.19094934 -0.03337887 0.15748608 -0.09763818 0.040190328 -0.0018280536 0.045122117 0.017383521 -0.19371639 0.120434776 -0.0934049 -0.0424215 0.076798104 -0.16188423 -0.10883022 0.124918155 0.05002093 -0.07182624 -0.15907288 0.10474756 0.07886535 0.035792403 0.068838686 -0.016882857 0.07742329 -0.0051113726 0.3216677 0.07195006 0.03055627 -0.031755336 0.10090285 -0.29673848 -0.19491443 -0.045931652 0.24153547 0.11374077 0.29333732 -0.07816851 -0.05365428 0.19631235 0.041744657 -0.032708097 0.040592637 0.20887786 -0.1556211 -0.03224034 -0.101457275 0.02325546 -0.04796052 -0.1805489 0.051262766 -0.029520415 0.043896016 0.19227612 -0.119521625 0.055196323 0.0016326692 -0.03364266 0.08160686 -0.11764028 -0.028244216 0.069792464 0.022034999 -0.09470162 -0.026578963 0.07622563 0.061252058 0.19141717 -0.1644883 0.30111632 0.0073553035 0.07905577 -0.090696745 0.07050994 -0.022428604 0.14688148 0.04549888 -0.05240805 0.2237515 0.1325244 -0.19392394 0.09891444 -0.13040976 -0.055429284 0.05083111 -0.29056746 0.105603784 -0.067244336 0.06668923 0.14032385 0.09006503 0.0840264 -0.09189258 -0.05196355 -0.29906628 -0.15901516 0.06212516 0.023036147 0.0339732 0.08049621 -0.0334411 -0.16178593 -0.12537864 -0.04041364 0.15706642 -0.1989516 -0.106419265 0.12993436 -0.12402854 -0.11622267 -0.17850909 0.012484019 -0.07455598 0.1707729 -0.018278925 0.08673631 0.08851218 -0.00033292215 -0.09945275 0.06682375 -0.07340263 -0.11358309 -0.04709772 0.121066935 -0.08567994 0.15716985 0.14707656 -0.22285162 -0.05317675 -0.061996564 0.09851941 -0.04969512 0.118854284 -0.010946444 0.22000037 0.12510957 0.024958124 -0.20004275 0.085293695 0.056367055 0.16641594 0.0005849554 0.38488454 0.053178806 0.22945467 -0.31460032 0.10863683 0.15032099 0.16375102 0.13139157 0.15370093 -0.23202066 -0.08667482 0.012091694 0.27641982 -0.052821457 0.17081524 0.017119806 0.22022529 0.07333996 -0.1534741 0.029264461 0.010430767 0.09882832 -0.122581996 -0.15923283 -0.14298975 0.05647595 0.02940536 0.18037607 0.068448 0.05000322 0.06036965 -0.050695427 0.28247002 -0.054362163 0.07393951 0.010892871 -0.18806477 -0.04724382 0.041178253 -0.077904716 0.34116536 0.15703927 -0.06266275 0.095405675 -0.15850331 0.15770072 0.2251823 0.07795718 0.19709298 -0.05919285 -0.05877106 -0.11215404 0.047335103 -0.059479315 0.13294579 -0.19418567 0.16851994 0.013899242 0.25538343 0.22831713 -0.16372432 -0.054495733 0.08707629 0.00085438497 -0.2724336 0.12481005 0.25018162 -0.077838235 0.19958562 -0.16141799 0.037404917 0.06484914 -0.08463389 -0.31082854 -0.07589516 -0.1350102 -0.07915758 -0.042666625 0.07983938 0.22989169 0.16704005 0.037884578 -0.04450746 0.035881136 -0.17786434 0.12430959 0.05691432 -0.17937283 0.011163954 -0.040720504 0.15515605 0.1844025 -0.15205225 -0.019612644 -0.13622528 0.13394783 0.23938344 0.08916493 -0.08721778 0.05611615 0.0599365 -0.17439567 0.041732665 0.15303591 -0.14827108 -0.10311105 -0.00092712726 0.12502682 -0.09185401 0.102369845 -0.025216753 0.00423657 0.074116684 -0.14422317 -0.019599074 -0.07325476 0.18457489 0.08325567 -0.043496206 0.009752306 0.13378571 -0.17102788 -0.0031165704 0.16214429 -0.06965185 -0.054394208 0.034652967 0.042806845 -0.28648034 -0.15779366 0.08332286 0.008768017 -0.29712358 -0.036169358 0.0021276323 0.23152077 -0.04555695 -0.11561365 0.1757143 -0.027416721 -0.30389708 -0.054312807 0.027536057 -0.009337633 0.15821737 -0.044522088 0.20483255
갑티슈 0.011071117 0.17649296 0.10845747 -0.2636219 0.0035201116 0.021859821 -0.0889907 -0.19120546 -0.24198543 0.11732582 -0.040399004 0.0063013737 0.118687734 0.011770257 0.039908584 0.06754959 0.009404081 0.109953344 -0.052403662 -0.21048933 0.1097345 -0.075207464 -0.055860545 -0.02173279 -0.24048002 -0.21925615 0.042165145 -0.13608931 -0.17910996 -0.19062822 0.109879114 0.11614052 0.049860165 -0.010293444 0.010252538 0.07046974 0.015642082 0.22762088 0.08938482 -0.025260696 -0.032156337 0.06952233 -0.16037443 -0.10332288 -0.113748394 0.10510734 0.17117317 0.23025224 -0.055923533 -0.016418112 0.24443461 0.10979164 -0.008593224 0.051616967 0.036940653 -0.11005939 -0.09592617 -0.21978611 0.1941229 0.0017720675 -0.23427172 0.13101524 -0.118895225 -0.067896396 0.27829152 -0.12571445 0.023178577 -0.05764129 0.00167436 0.072403386 -0.079152085 -0.06723192 0.060785204 0.014664128 0.056339044 -0.13856232 -0.03100959 0.1419876 0.050873082 -0.21217115 0.2985667 -0.06965087 0.01748497 0.057181753 0.14872114 0.14569353 0.08310663 -0.046446122 -0.048285138 0.27046752 0.18458675 -0.11572876 0.12222955 -0.092383005 -0.041489925 -0.1608392 -0.3234583 0.20039144 0.078393124 0.21771398 0.07152627 0.09159188 0.013265903 -0.2005427 0.07173091 -0.1958305 -0.06343118 -0.093711555 0.0794752 0.21470508 0.11108197 0.0019067848 0.08982526 -0.046141833 0.07123717 0.020112975 -0.11449831 0.09483095 0.10773266 -0.26548555 -0.107567415 -0.1739853 0.03815047 -0.11119057 0.087524556 -0.06982254 0.09910764 -0.057631996 0.17928988 -0.15516083 0.19672495 -0.078820765 -0.13243054 -0.026922474 0.04159405 -0.104155265 0.24922866 0.14974576 -0.22042143 -0.023474526 -0.06442787 0.08635614 0.04504383 0.07913473 0.11021067 0.16979003 0.07838414 0.030936014 -0.021534441 0.102480225 0.06941646 0.14108084 0.08702771 0.23756318 0.017857058 0.015669253 -0.3395194 -0.019800814 0.34835577 0.13084777 0.17702818 0.009624334 -0.15036783 -0.21529993 0.07722146 0.32446474 -0.00036083133 0.14284435 -0.07119411 0.04273941 0.060043767 -0.24200025 0.018009007 -0.11475011 -0.038603794 -0.18329518 -0.06536898 -0.17681894 0.04336929 0.037784044 0.15341537 -0.08940736 -0.022608321 0.10606946 -0.09059462 0.37197658 -0.06376653 0.19050999 0.07002933 -0.18119764 0.0355728 0.11539437 -0.05451188 0.32580197 0.28554094 0.10236999 0.14066404 -0.025220955 0.04013714 0.26327306 0.16455317 0.25548393 -0.03820501 0.0015841156 -0.103876196 0.098247096 0.01641096 0.09244353 -0.27068904 0.21622601 0.108606 0.2534809 0.17878166 -0.06996458 -0.041940987 0.11368675 -0.22908656 -0.1473887 0.039291922 0.2650473 -0.029078797 0.09485306 -0.05929002 0.012884428 0.09244768 -0.19833371 -0.17435485 -0.17902397 -0.008944784 -0.03849273 -0.053749036 0.0685108 0.1121361 0.17646877 -0.03067926 -0.17623751 0.0447448 0.01550528 0.027142433 -0.10490799 -0.16281295 0.06289016 -0.107965164 0.23765431 0.10386263 0.12794033 0.11262688 0.09176726 0.042892672 0.2804371 -0.016833333 -0.01798338 0.03428156 -0.0032685266 -0.15767348 0.01160031 0.19140513 -0.21732469 -0.20089363 0.016017964 0.17272247 0.042053185 -0.10326467 -0.015002329 -0.0626991 -0.033215478 -0.099400945 -0.20623976 -0.051013403 0.17040381 0.0329846 -0.021565389 -0.11416813 -0.019357648 -0.2371313 0.04117719 0.13347372 -0.06868843 -0.013783236 -0.033800397 -0.009668211 -0.33805427 -0.06515881 0.0022988198 -0.040440395 -0.29852077 0.011563133 -0.1754063 0.1965505 0.022507433 -0.14254524 0.17389697 0.034057725 -0.3170048 -0.08820811 0.03782447 0.01938787 0.23454449 -0.12412101 0.27053407
과자 0.05846907 0.23701799 0.2912398 -0.20079611 -0.0057214475 -0.022539942 -0.15349175 -0.3376174 -0.1085783 -0.03558825 -0.012941098 0.19568372 -0.039147098 0.117734365 -0.19129018 -0.35141748 0.07307535 -0.03735705 0.14928259 -0.13838938 0.22485371 0.0073873554 -0.3498352 0.05606725 -0.07942481 -0.22446822 -0.103962384 -0.03516757 -0.23468512 -0.33327395 0.08412423 0.0982509 0.09025248 -0.00055735477 0.11831689 -0.0046253065 -0.02334163 0.35921627 -0.15840761 0.20689331 -0.05515381 0.02028371 -0.23338483 -0.264453 -0.13080493 0.08909165 0.052010663 0.27934796 -0.13860533 0.026909068 0.07110377 0.047884405 -0.1844762 -0.27832478 0.07310935 -0.041816276 -0.034054745 -0.10566614 0.18624897 0.14951307 -0.47992298 0.23262288 -0.122746505 0.0342259 0.5212897 -0.18351899 0.08459859 -0.12375014 0.08192212 0.13403262 -0.0025072058 0.014185536 0.24091531 -0.24740994 0.08779654 -0.33389235 -0.1929931 0.058722712 0.21472065 -0.4480816 0.46898648 -0.05269124 0.16306965 -0.018875897 0.11514579 0.11267621 0.10345963 0.23831137 -0.031404458 0.4361726 0.32157296 -0.32617503 0.114953294 0.17068191 -0.0888813 -0.014527748 -0.046871115 0.33706853 0.3821496 0.41229087 0.058368232 -0.13187024 0.20867103 0.029901717 -0.071280636 -0.06304758 -0.24383394 -0.08349154 0.17872871 -0.0151600335 0.169111 0.093574554 0.08150997 0.05158341 0.11550216 0.103214145 -0.22658557 0.3484669 0.119511165 -0.29820526 -0.009659063 -0.055376638 -0.12033851 -0.072998166 0.09328464 -0.24278384 -0.091960795 -0.16946292 0.15687217 -0.17742252 0.087749854 -0.23798317 -0.16322227 -0.12659052 0.06863422 -0.21164338 0.1264995 0.28644028 -0.24821703 0.008096181 0.015441317 -0.028215745 0.041672435 0.14048433 0.057754323 0.08343796 -0.10595982 0.06558024 -0.07575861 -0.08708345 0.06823617 0.12400605 -0.15152626 0.26572695 -0.090590656 0.039804596 -0.15183717 -0.073203385 0.43817046 0.13416164 0.23662734 -0.1434696 -0.08059104 -0.25343555 -0.068649255 0.1641692 0.17021966 0.14644802 -0.006660146 -0.23287408 -0.15961146 -0.10207039 0.110725485 -0.2697676 -0.34469527 -0.3310865 -0.25985909 -0.11813359 -0.039067794 0.15618104 0.19603193 0.0034668026 -0.22425413 0.15703246 -0.11405283 0.349558 -0.27153325 0.1377309 -0.12122153 0.022476574 0.241488 0.18756193 -0.297082 0.4272628 0.23265074 -0.0843689 0.3298194 0.14837769 0.023519475 0.25359085 0.2306772 0.35242435 -0.23768337 0.26879257 -0.05665331 0.101279914 -0.16273883 0.016327305 -0.41333523 0.17200188 0.4142237 0.109351054 0.073082045 -0.28420296 -0.27794236 0.14887354 -0.111561574 -0.18097436 -0.0312795 0.56506616 -0.012357016 -0.10789363 0.2245045 -0.02543371 0.15934476 -0.06440511 -0.21555774 -0.2161392 0.015242683 0.060658142 -0.20134065 0.09622846 0.15549168 0.2494243 -0.028775115 -0.4691457 -0.09899593 0.00014796796 0.018794619 -0.08566794 0.07601377 0.18222418 0.06872288 0.23292236 0.14747988 0.096324705 0.16209456 -0.124223314 -0.07610567 0.29266575 0.22105642 -0.22406992 0.065629214 -0.09699354 -0.13254406 -0.31268898 0.0758968 -0.029773718 -0.07453966 0.015681798 0.050386194 0.14929973 -0.1226588 0.03898223 0.10834807 -0.34719124 -0.23308365 -0.41989705 -0.26384774 0.35063636 0.17594033 -0.27490157 -0.14317136 0.03388356 -0.316817 0.021935327 0.11763412 -0.107381575 -0.12613648 0.09859596 0.16251206 -0.246231 -0.3200605 0.16664425 -0.12933557 -0.1800271 0.007531031 -0.28242302 0.34873536 0.12444094 -0.06990756 0.45120344 -0.08495239 -0.25326577 0.3142465 0.048692502 0.22942051 0.25647083 -0.18349734 0.040972892
페이퍼타올 0.089739546 0.021071346 0.5759493 -0.31277645 -0.32835707 -0.12362361 0.12732682 0.016440263 -0.4394871 0.26993117 -0.0419736 -0.31369367 -0.23048219 0.006685549 0.18274496 -0.033800937 0.5562642 -0.2553971 -0.48928642 -0.23297097 0.012234423 -0.28561231 0.11991391 0.1313561 -0.26439303 -0.25954884 0.44739676 0.037705 0.18648276 -0.12388761 0.24092042 0.27192527 -0.27896127 -0.013670332 -0.2130884 -0.13630077 0.080765694 0.78076744 0.41949275 0.21828344 -0.2690408 -0.058746725 -0.53053194 -0.99632406 0.35432553 0.23795182 -0.25514075 0.2105094 -0.43129548 -0.0003724443 0.27820855 0.45456254 0.12790555 -0.40015456 0.43859458 -0.10032822 0.37477034 -0.08256825 0.31866106 0.37258452 -0.124856316 0.36020243 -0.19710396 0.28908828 0.57448274 0.2162512 -0.38685706 -0.44601178 -0.019575989 0.4482199 0.16518272 -0.2211696 -0.045821503 0.14122446 -0.71186364 -0.329072 -0.24974848 0.22774462 0.11951952 -0.2908343 0.43838 0.1525167 -0.17640975 0.24504906 -0.21741608 0.22886653 -0.16877145 0.38332388 0.15065716 0.6061152 -0.44082853 -0.12213722 0.40261838 -0.5139867 0.30421337 0.14558299 -0.73527396 0.051769465 -0.06111682 0.4165424 -0.02057417 0.17591108 0.069079444 0.12127214 -0.27345264 -0.6472449 -0.06623816 -0.22113949 0.051084217 -0.7034814 0.29147127 0.18262592 -0.103483796 -0.24007836 -0.1966824 -0.10680329 -0.21664084 -0.016395807 -0.04864248 -0.43542928 0.1742758 -0.3303248 0.12678804 -0.47804675 0.3220252 0.22089553 -0.1978228 -0.30720723 -0.20459229 -0.3886257 0.09791168 -0.31757963 -0.1642324 -0.52450085 0.43049347 -0.43819442 0.154307 0.08054721 -0.48758754 -0.08021083 -0.4067328 0.3483075 0.12670726 -0.21493913 -0.009246143 0.3455981 0.17867875 -0.21611056 0.14045279 0.073391244 0.20509514 0.5334256 0.23113006 0.13628319 0.24091236 -0.33154488 -0.21221577 -0.25821966 0.10635638 0.026481792 0.048399158 -0.33212954 -0.5740648 -0.39291617 0.04252396 0.6142581 0.10413184 0.3170811 -0.040588565 0.46713516 0.31730485 -0.20006742 0.6011236 -0.1670095 0.05355579 -0.05087205 -0.23023757 -0.53608507 -0.45179027 0.20376942 0.4445389 0.4346335 -0.010002873 0.23436318 -0.1512257 0.32894248 -0.4554666 0.29415 0.5275521 -0.13948558 -0.28620228 0.56124 0.12466122 0.84185314 0.41679597 0.12492975 0.10890011 -0.06778834 0.010276606 0.07466895 -0.12759708 0.5159613 0.50887513 -0.10024896 0.12819666 0.2713866 -0.16315119 0.59830797 -0.3333632 0.19016498 0.5348288 0.5603991 0.371607 -0.36746615 0.18831833 0.22714698 0.31477705 -0.48941812 0.20296207 0.49981523 -0.054507915 -0.03442809 -0.40528414 -0.33730915 -0.12327493 -0.34913462 0.19819868 -0.056864645 -0.32683975 0.3407662 -0.3533715 0.051035427 0.5189036 0.57929265 -0.14670548 -0.17153277 -0.33446777 -0.21270081 -0.11072723 -0.21816291 0.45602944 0.3082806 -0.12959869 -0.1320765 0.16671373 -0.17586568 -0.21578474 0.0014105424 0.40104935 0.5644561 -0.203682 -0.35570112 0.4442391 -0.9114025 -0.57188636 0.34750012 0.25659606 -0.082959846 0.17350803 -0.32866442 0.61622274 -0.39136267 -0.28439435 -0.13350214 0.24307182 0.15360199 -0.13811624 0.24575685 -0.176698 0.53718704 -0.5747529 -0.36508682 -0.32885483 -0.07285022 -0.23903885 0.4851857 0.010317936 0.16314791 -0.2005389 0.088954814 0.3004789 -0.7666426 0.074493475 -0.38106185 -0.4240794 -0.22866961 0.47410136 -0.17314154 -0.29541105 0.015105537 -0.2581573 0.15267225 0.48569867 -0.6741893 0.37880534 0.38397634 0.27986357 0.090028815 0.036758482 -0.13036887
포스트잇 0.13052365 0.19313526 0.26826912 -0.18333985 0.109254666 0.007632068 -0.197889 -0.014814059 -0.27074552 -0.07052119 -0.14396028 -0.09321154 0.015272472 0.08727142 -0.084762126 0.031025242 0.08071937 0.13017945 0.00285212 -0.21439609 0.10865309 -0.16022868 -0.0014968276 0.0903657 -0.26481742 -0.13364719 0.06398564 -0.018199723 -0.16329688 -0.096263655 0.08629415 0.042636804 -0.019130783 0.12483977 0.09412288 -0.045703303 0.06883431 0.27676216 0.14602038 0.11945339 -0.0192753 0.16509423 -0.2683831 -0.18801886 -0.043596745 0.28732356 0.07183779 0.24334635 -0.019864837 -0.065967835 0.16523506 0.06919579 -0.0100894775 -0.02398191 0.13118206 -0.18171562 -0.10773117 -0.14901187 0.16278204 0.0027284848 -0.44915718 0.18485193 -0.1740796 -0.017735813 0.23782484 -0.14411934 0.16444358 -0.10354109 -0.0583276 0.18421908 -0.20216668 0.0016806485 -0.010927845 -0.02362501 -0.17002252 -0.21174957 0.015641076 0.16528529 0.20903978 -0.23879723 0.40061548 -0.04936655 0.108753555 0.03150019 0.15950605 0.19207782 0.20307179 -0.09418891 -0.12895308 0.24285756 0.2162603 -0.23630421 0.056218684 -0.0007467385 0.05518157 -0.1587003 -0.15490131 0.13534133 0.11929383 0.22286554 0.16821867 -0.031535544 0.1796307 -0.10726399 -0.10477554 -0.32691914 -0.348215 0.08810491 0.11160506 0.14322078 0.04413303 0.13917457 -0.020342901 -0.08915673 -0.098250866 0.047476202 -0.25525975 0.030792136 0.14159298 -0.10378197 -0.0052538323 -0.16497816 -0.032717112 -0.08326589 0.1335847 -0.20570722 0.023076186 -0.0032648959 0.07148614 -0.024892382 0.037682004 -0.09292766 -0.0908988 0.038766876 0.065704316 -0.08787369 0.09752404 0.1901607 -0.23258911 -0.034210414 -0.089943886 0.025608717 0.06657887 0.10499829 0.067201614 0.18753912 0.26189741 0.07840601 -0.19598916 0.05035785 -0.025338149 0.20107782 0.07434001 0.34990636 0.07086341 0.16172609 -0.33486748 0.14845252 0.4005779 0.19998477 0.16963136 0.007015254 -0.10349265 -0.29035535 -0.008852526 0.37981024 0.028354388 0.103738956 -0.10070601 -0.09531382 -0.093776256 -0.24227268 0.006875396 -0.05113361 -0.012727557 -0.13064891 -0.12050494 -0.13796045 0.060862213 0.10430874 0.15084308 0.02951201 0.196578 0.17136405 -0.008067009 0.43922836 -0.018571671 -0.014029152 -0.10777346 -0.12337373 0.0123101 0.08633514 -0.15633687 0.38024563 0.20109856 -0.12775011 0.17057624 -0.11480676 0.17744766 0.24599038 0.021186845 0.22597313 -0.21793172 -0.026310494 -0.11111898 0.07565627 -0.048215557 0.055745475 -0.19555432 0.2033234 0.009506668 0.3047057 0.22011988 -0.17443414 -0.06425254 0.12053004 -0.04882869 -0.30902722 0.07127564 0.30525768 -0.06362242 0.13600858 -0.027852342 0.082455635 -0.031455137 -0.105923645 -0.26519242 -0.18220782 0.018011855 -0.18247223 -0.14834684 0.13403036 0.10059375 0.24189836 -0.07404161 -0.15451548 0.1416335 -0.12270009 0.05724778 -0.1860428 -0.16545132 0.044408314 -0.027066177 0.21750964 0.21555917 -0.05265695 0.07101324 0.15719728 -0.016780242 0.26157236 0.039161295 -0.017142959 0.004596065 0.051769454 -0.16471708 0.008622201 0.14935322 -0.16292118 -0.13232233 -0.06311123 0.17751434 -0.04320407 -0.00861551 0.005304761 -0.030195322 -0.089562796 -0.14484133 -0.1183465 0.0043869973 0.24290584 0.061024174 -0.08156842 -0.04892457 -0.032221172 -0.120315865 -0.11564769 0.08566316 -0.05389877 -0.011831285 0.09751301 0.008784505 -0.20539846 -0.18682127 0.078685515 -0.05953236 -0.3189811 -0.07622951 0.017841844 0.29022154 0.029455293 -0.18834408 0.3786815 0.01997719 -0.25907415 -0.10810532 0.21667798 -0.16045229 0.2927822 -0.0982879 0.39292923
볼펜 0.023654256 0.17460077 0.31157705 -0.11923873 0.078440785 0.1723752 -0.12415438 -0.062231112 -0.24467212 -0.0005086924 -0.15358491 -0.024325104 -0.009619403 -0.0030470921 -0.1291917 -0.06385963 0.056251112 0.13892087 -0.06965979 -0.23297957 0.07359242 -0.13093434 -0.031233465 0.14133792 -0.33652136 -0.16669528 0.12462586 0.023522124 -0.19119853 -0.13836114 0.06474577 0.016790723 -0.081404 0.1429696 0.101291426 0.13738745 0.08108851 0.19010451 0.09728985 0.0054831007 -0.0007230464 0.18561688 -0.14082578 -0.21257497 0.018334232 0.29092827 0.09483071 0.23419052 -0.1131937 -0.12553275 0.19453935 0.039963365 0.027010998 -0.09799884 0.10379277 -0.06708923 -0.18768887 -0.034745548 0.15891878 0.06879133 -0.3260462 0.12373051 -0.10693967 -0.013276166 0.25956565 -0.0066707027 0.085656196 -0.04127535 -0.09746703 0.09905592 -0.20360482 -0.04224472 0.070525326 0.07579838 -0.1259695 -0.24903634 -0.025336849 0.14558986 0.10088816 -0.35236177 0.48649988 0.05623709 0.059786227 -0.011391563 0.022998556 0.060521707 0.15062863 0.14109495 -0.1587817 0.31862274 0.11964676 -0.13796768 0.060386226 0.009718274 0.13575517 -0.1516876 -0.18804908 0.2193531 -0.0002635319 0.19734052 0.19765455 0.07867969 0.29677877 -0.07776227 -0.13863988 -0.30038142 -0.2113305 0.027113296 0.096014716 0.18006518 0.16079965 0.11970367 -0.088595435 -0.14081681 -0.16857724 0.030451657 -0.24100932 0.014921094 0.016047027 -0.18391292 0.025764208 -0.090435684 -0.016000424 -0.060094386 0.08545826 -0.26588264 -0.034534648 0.0718687 0.015925605 0.04224197 -0.024453163 -0.09018795 -0.031187486 -0.08430865 0.14245187 -0.04370317 0.13915794 0.3301853 -0.2060846 0.05640989 -0.214332 0.06334899 0.1074395 0.02999344 -0.07834254 0.17549746 0.2187607 0.04477878 0.0041053733 -0.06555808 -0.11940292 0.23759508 0.03488797 0.25771788 -0.0076707895 0.2300486 -0.111594744 0.10505356 0.40018055 0.2250643 0.3141574 0.028755525 -0.009907875 -0.15050618 -0.12010639 0.32157338 0.16358204 0.036815006 -0.2574716 -0.16911906 -0.11007866 -0.23200974 0.059879735 -0.185822 0.018069305 -0.19379367 -0.10430391 -0.14400627 0.02907609 0.023895437 0.119395725 0.06781762 0.107707314 0.06672473 -0.09388473 0.43139818 -0.016048936 0.056578256 -0.12245198 -0.13844305 0.17861885 0.0017271816 -0.13798133 0.46632978 0.07086233 -0.2394296 0.20211864 -0.15499635 0.14717898 0.096135356 -0.002274349 0.26086536 -0.06529955 0.049917907 0.0045571905 0.03296934 -0.10617278 0.17023998 -0.06475696 0.22686043 0.077703506 0.24610332 0.1645941 -0.1209058 0.085198015 0.09012398 0.0146029 -0.17060713 0.14645667 0.292724 -0.18175712 0.13966748 0.04072864 -0.032310575 -0.07740294 -0.16698293 -0.16017172 -0.059616867 0.027430687 -0.20312707 -0.16074273 0.12255972 0.17937048 0.24853054 -0.16322303 -0.08533251 0.1882887 -0.24889076 0.08855391 -0.092916235 -0.04187828 0.015301092 0.04078849 0.25145397 0.24046415 -0.14400065 -0.010278983 -0.044678956 -0.050726034 0.18085292 0.021267911 -0.01854811 0.16715589 -0.00034036362 -0.087836295 -0.08435485 0.005139112 -0.1481338 -0.13727608 -0.1680344 0.14071964 -0.14360549 0.003794681 0.046472367 0.0034846803 -0.103575565 0.030791737 -0.22946897 -0.07019625 0.21816303 0.010163381 -0.09014305 0.10003284 0.049157616 -0.1442921 -0.023527127 0.16849749 -0.10808581 -0.094611965 -0.0024395685 0.1802911 -0.36334613 -0.09300962 0.11740127 -0.18926969 -0.15734564 -0.1263282 0.036639016 0.047240492 0.042893656 -0.25838235 0.16827634 -0.06630952 -0.1393603 -0.1339284 0.33672097 -0.0205411 0.20973787 -0.0647222 0.31785572
유무선공유기 0.045260105 0.21465062 0.3307892 0.05832883 -0.16990124 0.023617614 -0.0003114934 -0.14626762 -0.29136232 0.087716885 0.04694311 0.090866886 -0.06385608 0.04532443 -0.43977192 0.02402816 0.29414767 0.03027124 -0.056209266 -0.13582015 -0.057082996 -0.07066562 -0.020835627 0.07581572 -0.15688077 -0.07110989 0.25526023 -0.08156337 -0.09076509 -0.2287268 0.11314134 0.14715327 -0.11307286 -0.20322601 -0.07244397 -0.040374525 0.23428717 0.06355367 0.054330856 0.03853209 -0.11338585 0.155963 -0.34552154 -0.07164732 0.08585796 -0.047917295 -0.004559846 0.34634465 -0.054212987 -0.039061893 -0.059495855 -0.124733984 -0.11891894 0.098982766 0.14243191 -0.10719243 -0.069591865 -0.103447355 0.04238503 0.044033654 -0.04932503 0.2275008 0.10879574 -0.03278515 -0.02914999 -0.07304082 -0.04600845 0.1111324 -0.041849907 0.09551998 0.12321211 -0.05178925 0.12873372 0.080400735 -0.1981424 -0.18641557 -0.17746815 0.13238734 -0.07769039 0.19063818 0.14351422 0.04213117 -0.04625769 -0.066628054 -0.051514685 -0.105482355 -0.08312069 -0.0035371785 -0.18859215 0.2574414 -0.15626311 -0.23605217 0.056402102 0.02498648 -0.21846004 -0.029669523 -0.08020417 0.097516045 0.037935305 -0.06964406 0.17295724 -0.046736736 -0.017962875 -0.08351852 -0.07482525 -0.06771882 -0.108535774 0.014328611 -0.1458553 -0.08587813 0.04458709 0.0424863 0.012254885 0.0016756031 0.15449795 0.018243607 -0.063775755 0.22869496 0.13546331 0.018074047 -0.13688132 -0.022933567 -0.11413988 -0.27143836 -0.017755594 -0.16946922 0.04314049 0.10488614 0.028083194 -0.35198194 -0.022489205 -0.13969047 -0.2645757 -0.16756816 -0.068706006 -0.09751178 0.15893458 0.06891508 -0.13164759 0.08425154 -0.006334399 -0.018095667 -0.31966302 -0.054470558 0.055756595 -0.13296147 -0.098276846 0.0027471932 -0.12345489 0.20415203 0.2517393 0.1172416 -0.0946243 0.040287074 0.31426898 0.18796663 -0.17542768 -0.04273801 0.20254105 0.09960719 -0.29129136 0.022803413 -0.25968832 -0.052251045 -0.086325385 0.13562602 -0.347615 0.3845282 0.0908483 0.2722437 0.16357462 -0.0039359224 0.0262212 -0.22996812 -0.18897271 0.08274176 -0.09431925 -0.30165708 -0.082861826 -0.033214275 0.20990385 0.030809445 -0.02156162 -0.12641273 -0.08126431 0.41228887 -0.013924076 0.18649358 0.071936764 0.18594436 -0.10367931 -0.06569426 -0.1314799 0.40510634 0.29600963 0.0581338 0.009175522 0.122872435 0.235716 0.17344289 0.23244314 0.29536113 -0.1131615 0.392158 0.09033268 0.09306176 0.054436408 -0.21267627 -0.41872716 -0.075407535 0.17902443 0.06626867 -0.20379022 -0.28618586 -0.33620408 0.05394565 -0.25220695 -0.16010813 0.14613146 0.044735905 -0.109383926 -0.013229453 0.05727193 -0.05806285 -0.04213576 -0.06790903 0.062191978 0.004115149 -0.15985233 -0.1599252 0.061904505 0.20328031 0.2984964 0.13103722 -0.052430823 -0.027431231 0.06269632 0.010424603 0.118049555 -0.081290945 0.008086226 0.036627807 -0.11192456 0.22125046 0.29806882 -0.058203064 -0.122681744 -0.07283835 0.042639837 0.1678134 0.04542889 -0.090428144 0.16679415 0.007764787 -0.025180876 0.025031125 0.17132464 -0.055395775 0.13236919 -0.05824479 0.123772405 -0.15079713 -0.103106864 0.0008437991 0.017101903 0.13956247 -0.16642003 -0.019747034 -0.22380055 0.12500288 -0.08142933 -0.22231537 -0.12017696 0.3297426 -0.0514341 0.06273024 -0.16946243 -0.07203502 0.039772198 0.14392474 -0.22249413 -0.21249889 -0.35762754 -0.14908727 -0.05340509 -0.26033127 0.17722352 0.25875401 0.15112196 -0.20097534 -0.22098169 0.12399747 -0.1336542 -0.20883556 0.25756833 0.15330651 0.050322283 0.027743863 0.036184568 0.20664532
 -0.11223343 -0.06467643 0.22230071 0.13060458 -0.13993675 0.064147875 0.0060231625 -0.20647693 -0.1362623 0.102519594 -0.031989858 0.06608699 0.015983403 -0.17220353 -0.11763599 0.008661968 -0.0649776 -0.041352358 -0.02065573 -0.108733915 0.025952404 -0.21465863 0.045301847 0.13889325 -0.16260502 -0.04193604 0.06687388 -0.033305928 0.1289661 -0.07041421 0.018004023 0.013195651 -0.04726526 -0.091981195 0.08333595 -0.086965285 0.01752124 -0.044834964 0.14628696 -0.036863282 -0.08673762 0.03874392 -0.28301585 -0.02878988 0.0037239203 -0.13614535 0.04143684 0.20736985 -0.10166376 -0.06327378 -0.009159653 -0.107268035 0.002695006 -0.07110467 -0.100347534 -0.1927457 -0.01990853 -0.05195955 0.04514419 -0.010428954 -0.052270997 0.05995596 -0.03264973 -0.029393688 -0.073676996 -0.007264572 -0.086152345 0.15010926 -0.21667403 0.056048013 0.07513104 -0.004203843 0.18166767 0.08267059 -0.013346912 -0.0916323 -0.19173782 -0.046905518 0.01652408 0.07609157 0.17876182 0.09355023 -0.05377234 -0.073683076 -0.08577611 0.028982978 0.016219858 0.03288308 -0.044945527 0.13371949 -0.02950034 0.060867973 0.25794354 -0.013323563 -0.098181084 -0.02239452 -0.16278665 0.0856239 0.051694468 0.022780055 0.059020367 -0.1239476 0.03829521 0.0792779 -0.068110965 0.112099595 -0.019868813 -0.017604543 -0.16160464 -0.09393044 0.001501911 0.020417454 -0.13829233 -0.15160784 0.1692946 -0.11711108 -0.07284469 0.31427294 0.124483205 -0.048493233 0.03412405 0.015268038 -0.08166149 -0.19930503 0.010486901 -0.018960299 0.051688556 -0.026537066 -0.056067146 -0.14711353 -0.012328664 -0.09006426 0.028564883 0.02796151 0.10481054 -0.07309148 -0.018711172 0.03895719 -0.11056728 -0.1069426 -0.1033242 -0.087836005 -0.06027454 -0.068497114 -0.04009466 -0.087096795 -0.11750212 -0.032219253 -0.012531246 0.0938239 0.14853589 0.103624895 -0.08487877 0.016686976 0.13255803 -0.0730292 -0.09139575 -0.12759674 -0.032546848 0.0052555967 -0.06820338 0.14570604 -0.05445523 -0.06348545 -0.03462724 0.11657 -0.060935322 0.21507026 0.10833494 0.015095322 -0.0908549 -0.12100339 0.11936237 -0.063438535 -0.13976529 0.003061566 -0.12323643 -0.10971491 -0.066330925 0.028510015 0.14748006 -0.03649613 -0.04640631 -0.08119622 -0.15873778 -0.06794574 0.0069374964 -0.00950454 0.13174923 0.08631006 0.076602876 -0.0038041444 -0.18573074 0.2884956 0.21759066 0.064452775 0.021069635 0.07891835 0.06605201 0.058117658 0.010807596 0.029145978 0.22163682 0.06483764 0.016485382 0.04194955 -0.119912036 -0.04261724 -0.29106182 0.1768424 0.27052364 0.030307282 -0.079211 -0.17367752 -0.15819432 0.09442612 -0.08139773 -0.13876928 0.01544841 -0.023365323 -0.13565929 -0.035805717 0.10262363 -0.0759543 -0.06549221 0.065472394 0.18079646 -0.019384325 -0.11524483 -0.0112197315 0.017853536 0.098963335 0.08704134 0.17082398 -0.10594527 -0.13751115 0.010578419 0.0066696256 -0.108357385 0.03707167 0.17623466 0.018139446 0.22270653 0.0285653 0.040913228 -0.11236287 -0.11854598 -0.1590333 -0.15389504 0.1696736 0.064644486 -0.18476416 0.016664714 -0.12032581 -0.14624126 0.056423634 0.1172355 -0.03924134 -0.036046173 0.024462758 -0.054767296 -0.014998132 -0.008524938 -0.13411666 -0.033727672 -0.14297669 -0.07318453 0.08380977 -0.012448692 0.08310627 -0.017243648 0.024265124 0.08621285 -0.07866577 -0.18132581 0.11313361 0.02851028 -0.018543255 -0.010127496 -0.13284814 -0.013535684 -0.1604982 -0.20682763 -0.08069195 0.091132365 -0.10172865 0.10764751 0.08638958 0.001315039 0.21303223 0.08649218 0.09289674 -0.01266578 -0.16938314 0.09107727 0.11719599 -0.0026911828 -0.11977257 -0.13537054 0.040893476
점보롤 0.1435109 0.19347487 0.44383052 -0.38378638 0.06963362 -0.032682877 0.2822131 -0.110054165 -0.26415306 0.20322534 0.011339527 -0.19361441 -0.13248378 -0.15474507 0.17176361 -0.11117135 0.24707872 -0.16118135 -0.3546233 -0.3240778 0.07909953 -0.39309326 0.07876861 0.27254164 -0.027286228 -0.5036418 0.15421371 0.15495029 0.021392545 -0.22392632 0.1522526 0.2877677 -0.013408106 -0.022676367 0.02128775 -0.094242625 -0.15978359 0.6089483 0.4718524 -0.04525173 -0.15429674 0.16649853 -0.4392544 -0.6008113 -0.08668419 0.3688657 0.104306646 0.054683074 -0.16861574 0.0095830895 0.5452517 0.0069410424 -0.19356836 -0.17645746 0.35587242 0.18808828 0.17621848 0.11466676 0.11236635 0.3376619 -0.19761707 0.16194353 -0.10103057 0.2868075 0.64277554 0.12157883 -0.008299035 -0.31447497 -0.046169776 0.0048331763 0.015522893 -0.2602159 0.04401431 -0.18773001 -0.42268676 -0.43514353 -0.07563186 0.16867638 0.10859093 -0.39809954 0.12468776 0.15017007 -0.22338475 0.12156602 -0.20696653 0.04060719 -0.3228944 -0.0165768 0.09567578 0.53736925 -0.1613442 -0.095795184 -0.024676219 -0.34341615 0.39277202 -0.028957829 -0.6457315 0.14822015 -0.089485876 0.4304688 0.007752097 -0.012575245 0.14886156 0.370317 -0.20025936 -0.5159712 -0.3363719 0.008798499 -0.14254962 -0.4140384 0.11046364 0.03352517 -0.05569161 -0.32779092 -0.32359925 0.06145218 -0.2691904 0.02314128 -0.23395765 -0.61172986 -0.045380656 -0.19164318 -0.028802995 -0.19611377 0.26860753 0.21750647 0.17282316 -0.26353365 -0.3160881 -0.24503003 0.37089086 0.008148187 -0.2766263 -0.37687105 0.5616655 -0.4875097 0.12590623 0.09773939 -0.62502915 -0.09115967 -0.189101 0.3440056 -0.10930694 -0.0069636027 -0.06732361 0.42108202 -0.046419386 -0.187546 0.041316014 0.18502587 0.008621429 0.52257174 -0.09716073 0.018946635 -0.28515682 -0.390721 -0.4496126 0.013144273 0.1795932 0.21822044 -0.071128026 -0.11941906 -0.50524056 -0.4123627 -0.18340151 0.0640898 0.31225207 0.49027985 0.22232552 0.21765053 0.06154066 -0.32746056 0.48443395 -0.2743841 0.027285803 0.043896187 -0.18534537 -0.66034865 -0.57171345 0.085170284 -0.03175918 0.46984246 0.09516718 0.21522327 0.002178208 0.37944818 -0.5346222 0.25146338 0.48666513 -0.27813134 -0.08268011 0.31789264 0.21530241 0.75272465 0.38659054 -0.025391929 -0.07968772 -0.24636678 -0.052782677 0.4492034 -0.17458293 0.50852114 0.34174097 -0.030756632 0.32823813 0.31241333 -0.12201976 0.57829577 -0.068629235 0.29897526 0.3814902 0.08467978 0.41136995 -0.057044163 0.020205876 0.4028169 0.14448412 -0.2939971 0.068164244 0.4827227 -0.08643227 0.1817579 -0.3359326 0.040773243 -0.17734778 -0.25867605 0.039897617 -0.06777533 -0.22099409 0.22895145 -0.35403708 -0.061406452 0.17681707 0.5948565 -0.041066602 -0.036608487 -0.07523656 0.079802655 -0.21974829 -0.3177184 0.0909342 0.29918435 0.056744188 0.101734966 -0.008731582 -0.2917195 -0.06569467 0.3241554 0.12902196 0.17413893 -0.22470361 -0.20194207 0.46801886 -0.7523596 -0.51916826 0.17303143 -0.0417011 -0.14039287 0.1529802 0.065580934 0.48880225 -0.26023817 -0.19278184 -0.11548123 -0.058064945 0.3069469 0.18228501 -0.016523119 0.04273564 0.62578917 -0.28985998 0.052531123 -0.37454683 -0.18287334 -0.37911963 0.013820178 0.036241017 -0.03411965 -0.15461303 0.13141829 -0.09282159 -0.51148754 -0.13405168 -0.24489212 -0.6345598 -0.086911 0.17386085 -0.16075368 0.13138455 -0.043468386 -0.104775585 0.3465301 0.24021262 -0.56825066 0.19413996 0.054637928 0.26706648 0.29214686 0.016529711 -0.06393755
멀티탭 -0.08248308 0.20113839 0.17876092 0.059040565 -0.02328101 -0.012774902 -0.03842946 0.025227128 -0.36077183 -0.008839842 0.044474546 -0.044410884 0.040246673 0.12270503 -0.30735308 -0.016450359 0.036613 0.00535427 0.07010279 -0.16562784 -0.032223124 -0.13822362 0.022547616 -0.020313108 -0.011809149 0.092490114 0.28973627 -0.121076286 -0.059168875 -0.07280677 0.019431647 0.0037506258 -0.103189416 0.038915657 0.019831372 0.10004594 0.054990645 -0.051989153 0.11714072 0.107364394 -0.0044125225 0.011311599 -0.33396327 -0.1774655 0.039544843 0.05336337 -0.11617602 0.16570784 -0.012215398 -0.051863294 0.0075196116 -0.057582833 0.035891507 0.07225074 0.059841458 -0.22377491 0.0925566 -0.058720868 0.009442914 -0.104453795 -0.12767501 0.1674382 0.19003399 0.053740256 0.120365866 0.008427483 -0.012207012 0.08840015 -0.12904811 0.21940358 0.04812327 0.1141886 0.22563213 -0.0014935398 -0.094199486 0.04568649 -0.122891374 0.044001136 0.087244354 0.1363109 0.20808163 0.10883227 0.1195419 -0.031155834 -0.05420974 -0.016903099 0.092928626 -0.023280999 -0.16240123 0.053546585 -0.08981161 -0.09888265 0.13139915 -0.11594859 -0.0763131 -0.030723939 0.019044483 0.070794575 0.18730073 0.012205981 0.024861313 -0.015934052 0.07268523 0.064265735 -0.10707093 -0.024957346 -0.06522977 0.18336815 -0.081711516 -0.109945305 -0.002640798 0.029497085 -0.12064759 -0.038970634 0.0062564397 0.1421801 -0.19198607 0.19479124 0.26163095 0.05846263 -0.0715563 0.021887193 -0.21791863 -0.13100949 0.16264555 -0.05378005 -0.10732953 0.053742643 -0.043571744 -0.022426642 -0.13327856 -0.0607731 -0.05393112 -0.09898174 0.024886895 0.023970492 0.23325317 0.020329462 0.021265773 -0.014103922 -0.06211637 -0.04848503 -0.09884688 -0.07862679 -0.01821646 -0.09605547 -0.025945222 -0.057045363 -0.11873117 0.09163812 0.09687843 0.14851198 -0.018412543 -0.012420989 0.17939496 0.16083175 -0.08069359 0.045234732 0.1122918 0.048380382 -0.052770626 0.1201583 -0.014752005 0.017738601 -0.007008698 0.11475523 -0.14304201 0.15941484 0.1384988 0.029624201 0.11521076 -0.18696664 -2.5345455e-05 -0.07475941 -0.114959255 0.056341007 -0.090497635 -0.21390371 -0.2113395 -0.045602635 0.23452972 -0.016232736 0.050510462 -0.123433575 -0.05366379 0.15355565 0.10515841 0.042881258 -0.10815752 0.0468369 -0.14823753 -0.049610183 -0.112548046 0.18354872 0.1771519 -0.22059773 0.13371722 0.058439363 0.15570034 0.12307693 0.095153816 0.114433475 0.023364635 0.081017114 0.13682163 -0.11282106 -0.06480011 -0.11890504 -0.28004506 -0.07205399 0.08630642 0.08281932 -0.24986762 -0.15860714 -0.24931791 -0.070160516 -0.3393326 -0.10466224 0.076859586 0.05391724 -0.07367259 -0.030823177 0.25157788 -0.10872572 -0.22701982 -0.025993511 -0.121560924 0.033259824 0.022968227 -0.07136991 0.001354097 0.03650041 -0.057609532 0.014901194 -0.042233407 -0.08736848 0.05539715 0.008716149 -0.15313509 -0.11270971 0.0067860642 -0.0031522014 -0.117398895 0.054978736 0.21692434 -0.17373744 -0.061332196 -0.07424146 0.015046015 0.13347268 0.09880414 -0.20309988 0.003158307 0.061625678 -0.09919447 0.039602738 -0.13367799 0.13749225 0.11593382 -0.14340693 -0.07523409 -0.119485214 0.18708989 -0.075422466 0.0031386213 -0.2483604 -0.16393372 0.087305084 -0.12279258 0.09601663 -0.10344951 -0.22408393 -0.009262013 0.03932883 -0.12861715 0.07562117 0.017532043 -0.013048952 0.116915934 0.104536556 -0.085617915 -0.11404344 -0.23676962 -0.040676348 0.021846525 -0.31734028 -0.045836616 0.14687821 0.15386054 0.08954263 -0.083165854 0.19429317 -0.12416392 -0.14331885 0.22454281 0.10242967 -0.102882124 0.19816121 0.110846356 0.22419779
음료 -0.07307055 0.15073337 0.25794226 -0.21164438 0.1508916 -0.08437188 -0.13456964 -0.08216246 -0.14519246 -0.029071167 0.077784054 0.27499038 -0.11832658 0.17325054 -0.26758075 -0.28178155 -0.0052776076 -0.08729629 -0.015749699 -0.114328735 0.2585847 0.11642575 -0.21186939 0.18254818 -0.31121314 -0.37832004 -0.10760889 -0.1549548 -0.031788718 -0.30137056 -0.021146242 -0.11832785 -0.074945375 0.08347017 0.047586303 -0.07633282 -0.090914436 0.30476177 -0.08164484 0.083749086 -0.16152042 0.15637767 -0.091597326 -0.19115117 -0.05810851 0.10509471 0.113580115 0.35304108 0.08104065 0.05153901 -0.07883381 0.22207814 -0.10855259 -0.18061231 0.0049787895 -0.018058434 -0.2338432 0.013296856 0.3182429 0.11252429 -0.43759024 0.06464149 -0.26167026 -0.06617546 0.31123805 -0.22645529 0.34758103 -0.12252395 0.03175539 0.09296149 0.14500652 -0.014492814 0.12054416 0.09504314 -0.2237753 -0.18826126 -0.25382283 0.04692039 0.18439049 -0.37254152 0.5153277 -0.23572259 0.13340952 0.011505256 0.16040735 0.14365616 0.07928553 0.15318058 -0.059134196 0.33421507 0.41952905 -0.3388157 0.31751156 0.24281327 -0.040571008 0.12769248 -0.3106569 0.09577304 0.14936934 0.18272401 0.12400526 -0.044522036 0.09178529 -0.22602981 -0.22008684 -0.30855185 -0.24803515 0.0320109 0.10418597 0.24885118 0.14992447 0.32294944 -0.06760793 0.036156293 0.23586795 0.007561622 -0.17158216 0.3266158 0.21091397 -0.25423524 0.04778911 -0.22059773 0.027305417 0.11620227 0.030930663 -0.18190138 -0.11848201 0.09541107 0.379941 -0.13522872 0.18366462 -0.3411676 -0.24931371 -0.0040127467 0.11007067 -0.11555959 0.112094454 0.1884323 -0.20860189 0.17669019 -0.08199345 0.26560295 0.055302296 0.114752255 0.11574558 0.061247133 0.00023386882 -0.016090738 0.045069963 -0.05345316 0.06637969 -0.03684139 0.010364745 0.26349062 0.065514326 0.07854801 -0.08677918 0.069723226 0.39032292 -0.050533824 0.35177782 -0.012173253 0.03789064 -0.25878885 -0.038063213 0.17469472 0.08287703 0.15368716 -0.098782055 -0.21289502 -0.07564082 -0.17641558 0.18238153 -0.3026268 -0.14874381 -0.27977923 -0.23134796 -0.065020025 0.081741564 0.09659359 0.24263425 0.076531015 -0.31997502 0.16579737 0.054344684 0.2855518 -0.22483505 0.16823724 0.017253567 -0.13586913 0.19535697 0.116521776 -0.1693058 0.33218995 0.24970518 -0.09194271 0.28148815 0.12877315 0.026360275 0.2841523 0.21074624 0.2618084 -0.22315632 0.016369972 -0.18040742 -0.009610222 -0.28821388 0.06865941 -0.31956157 0.13935821 0.3650767 0.22209023 0.26577997 -0.26250795 -0.26824299 0.25356445 -0.2683981 -0.16832186 0.105429836 0.3452002 -0.031050257 -0.04908178 -0.09038825 0.08847524 0.04118413 -0.10304614 -0.15397057 -0.22727454 0.038294762 0.042730436 0.049015783 0.20390049 0.12586704 0.30597585 -0.0107223615 -0.23239122 -0.09053429 -0.05057593 0.02231309 0.053642377 -0.10342273 -0.04452986 0.10273477 0.30193654 0.21422498 0.050712317 0.07972983 -0.14679904 -0.07174114 0.2828037 0.1880777 -0.22380084 0.26782274 0.008196803 -0.03834666 -0.3048448 0.12241041 -0.29378173 -0.18396941 0.00952633 0.059107974 -0.042158097 -0.14285797 -0.30148426 0.039293297 -0.12125321 -0.12460563 -0.40653387 -0.11209506 0.40880322 0.19371691 -0.25135103 -0.14149398 0.016192494 -0.36584657 -0.0059163016 0.23460333 -0.14991131 -0.0628816 -0.1561088 0.036526993 -0.29696208 -0.23214091 0.19816604 -0.15468389 -0.25945616 0.027154036 -0.028491657 0.2792744 0.17799415 0.006586674 0.32572755 -0.08944331 -0.36176056 0.15705706 0.09876803 0.18149966 0.12447878 -0.09561892 0.2914195
네임펜 0.0138310185 0.13541704 0.28192493 -0.30639613 0.06424083 0.12708111 -0.15820734 -0.0071672257 -0.19332892 -0.00010606608 -0.15071549 -0.0634171 -0.02576755 -0.010165485 -0.12545002 0.02898675 0.016192883 0.11883597 -0.110464245 -0.23629008 0.07336081 -0.11596016 -0.014467095 0.09270828 -0.13878305 -0.025853215 0.2468747 0.03266202 -0.24565163 -0.05380179 0.09721156 -0.056981623 -0.021471068 0.07635315 0.20031397 0.07685896 0.059450723 0.263071 0.095434204 0.14980003 -0.05196638 0.13605152 -0.17048192 -0.22621022 -0.01623582 0.27710047 -0.010747432 0.20687452 -0.14357916 -0.04712273 0.18840285 -0.022571519 0.040461045 -0.0011539231 0.060144823 -0.22720973 -0.062389165 -0.12342104 0.18687497 -0.08618237 -0.34938365 0.30516616 -0.07685248 0.05857637 0.38135153 -0.037570078 0.077812694 -0.04983065 0.023647385 0.2195105 -0.11120863 0.034697134 0.095136866 0.08418491 -0.16109377 -0.196674 -0.011770081 0.22608455 0.13019799 -0.2781838 0.46400672 0.028933516 0.22867355 0.06468101 0.09248805 0.16281451 0.17064755 0.071718365 -0.23149453 0.16964647 0.07539587 -0.032049567 0.008092975 -0.07844006 0.08142321 -0.09630082 0.058343343 0.25797933 0.05086886 0.2524529 0.090138964 -0.043462623 0.21742687 -0.04346825 -0.19823714 -0.27534723 -0.23233585 0.037848175 0.047303993 0.16216083 0.045239564 0.14878602 0.07825704 -0.13926487 -0.12342348 0.10665984 -0.29290733 0.0538735 0.1068979 -0.056115795 -0.054927204 -0.20542297 0.07639938 -0.07543493 0.20044553 -0.21730652 -0.038954277 0.011237703 0.024462147 0.11747735 -0.015582403 -0.026600318 0.02546566 0.015169617 0.1558002 -0.01683839 0.09240905 0.20668145 -0.20906322 -0.04404481 0.009902641 0.018365437 0.14732696 -0.049932763 0.06581521 0.27708888 0.19787285 -0.08463236 -0.011790836 -0.08725977 -0.004739242 0.21042392 0.14067124 0.34249517 0.14630985 0.2083016 -0.21235384 0.24690655 0.30284196 0.14814661 0.12443779 -0.08488763 -0.081093214 -0.23832335 0.0036917678 0.36172694 0.06960173 0.010582819 -0.18621753 -0.15314777 0.0037406813 -0.25013503 0.117252745 -0.14355385 -0.096406855 -0.06403499 -0.2125559 -0.20407231 0.050601978 0.15297376 0.11885345 0.08947829 0.11695925 0.18673314 -0.07504959 0.2877307 -0.06262548 -0.18574366 -0.18305655 -0.038587324 0.10600171 -0.04955136 -0.09650231 0.25892413 0.23241216 -0.20401248 0.19154955 -0.09365748 0.2146694 0.17101187 -0.044206228 0.000117061754 -0.040398147 -0.09034172 -0.12452676 0.009972962 -0.11665955 0.059703767 -0.1271696 0.10197224 0.0808341 0.2987636 0.22683263 -0.10957971 -0.068055816 0.13497277 -0.026408868 -0.22234699 -0.0074223005 0.14174317 -0.015369156 0.091293536 0.040891025 -0.0151480995 -0.048704926 -0.07750845 -0.2760281 -0.09704352 -0.059156384 -0.0013139038 -0.0369912 0.07534533 -0.004488009 0.122440726 -0.117444545 -0.035393532 0.123288885 -0.061863836 -0.028536746 -0.09099029 -0.19523989 0.020981984 -0.11247775 0.13433063 0.24242978 -0.0024835982 -0.07952725 0.13754778 0.02703365 0.18562652 0.056376036 0.09754745 -0.10180542 -0.07763759 0.015037055 0.07403838 -0.045438547 -0.03850539 -0.103922196 -0.14842808 0.034772836 -0.13186724 -0.032458343 0.01465479 0.008556318 -0.075611494 -0.029786067 -0.11609235 0.014885446 0.34471327 0.0563483 -0.0633903 0.031284213 -0.11479056 -0.13345723 -0.021095352 0.12668774 -0.079775654 -0.0007577613 0.11532044 0.078615054 -0.21286197 -0.12113424 0.034732066 -0.11067317 -0.23389047 -0.031778567 0.0032759116 0.26763573 0.050622698 -0.21105894 0.21885577 -0.10904273 -0.19851908 -0.07223098 0.18842314 -0.21695597 0.2433403 -0.10564211 0.3105863
플로터용지 0.10420093 -0.063304916 0.2019437 -0.3018833 0.062146764 0.049454127 -0.08520004 -0.051037025 -0.2793131 0.042824283 -0.22195116 -0.25606468 -0.02639891 0.00090490474 -0.061564054 0.19843611 -0.005730113 0.024086397 -0.04368641 -0.047819845 0.103594854 -0.0722008 -0.12045391 0.09127963 -0.12527822 -0.12516917 0.21223508 0.043158934 0.008834224 -0.12884529 0.24183005 0.110851206 0.066511914 -0.04941637 0.052717287 0.18819582 0.078742795 0.36116338 0.057379227 -0.0043484163 0.006313682 0.036140405 -0.28822255 -0.34018037 -0.0024317557 0.23477949 0.051941458 0.14949326 -0.17049225 -0.033242334 0.21234557 -0.047536608 -0.006949959 0.17474063 0.0801562 -0.049537923 -0.027491486 -0.04910964 0.04789785 0.027707854 -0.11831403 0.058820546 -0.08989955 0.07148789 0.33654165 0.041212935 0.12048091 -0.10895437 -0.07374982 0.013885926 -0.23047589 -0.09102478 0.12238633 0.05673644 -0.22220944 -0.03750421 0.071911514 0.124685325 0.15046702 -0.2609196 0.32790565 0.11260982 -0.009688688 -0.078610934 0.052971855 0.056623034 0.076961316 0.075788796 -0.07105939 0.31259766 0.06871396 -0.0983687 0.002382102 -0.07769907 -0.008394612 0.1534628 -0.20372978 0.16384552 -0.11381575 0.035272118 0.19264929 0.17929286 0.223109 -0.069926485 -0.039649118 -0.3171912 -0.11150918 -0.011879994 -0.02289272 0.16046253 0.14735755 0.016488092 -0.004793225 -0.18618563 -0.14111154 0.2385966 -0.059258025 -0.13989934 0.11150449 -0.16521952 -0.2265623 -0.26833877 0.07635712 -0.15246528 0.22690031 -0.050736763 0.10510572 0.18621466 0.10638243 -0.07510396 -0.025598958 -0.06112357 -0.13004749 -0.14013274 0.22141823 0.028812742 0.18943146 0.013307303 -0.35522765 -0.03780686 0.004820139 0.08587044 -0.07001806 0.045231033 -0.13071609 0.29065007 0.1420565 -0.015618759 -0.23943764 -0.025197558 0.058758784 0.27170804 0.12043575 0.32857525 0.18401304 0.2579136 -0.51982254 0.18855952 0.08026022 0.27294844 0.15798205 0.14584002 -0.13648547 -0.08160861 -0.1571313 0.33862236 0.062103447 0.1575488 -0.17688477 0.21168683 0.15860723 -0.22354616 0.18933472 -0.08651987 0.059567783 0.07180964 -0.082132995 -0.3048738 0.11566391 0.16704118 -0.007905521 0.08189903 0.16633438 0.07775796 0.0305272 0.3664403 -0.026394682 0.00062158343 -0.039391868 0.03201026 -0.010983393 -0.095718905 0.013459374 0.2810296 0.2519419 0.060561903 -0.06404824 -0.22853456 0.11316031 0.13192794 -0.006010026 0.009706215 0.1241161 -0.050645594 -0.11393914 0.3253629 -0.081185386 0.1804833 0.03836666 0.20067091 -0.13292934 0.35461092 0.26517594 -0.01175334 -0.028731523 0.15832661 0.022953447 -0.15908135 0.03061982 0.14053157 -0.22746651 0.38098246 -0.24750847 -0.011173093 0.06932383 -0.2754207 -0.23643059 -0.05400708 -0.23200563 -0.15268984 -0.078033745 0.051197466 0.13944414 0.28021193 0.111987144 0.032808956 0.14731899 -0.17150307 0.14768836 -0.032916725 -0.28131154 -0.04203274 -0.12331461 0.19590747 0.2427257 -0.057802588 -0.17408727 -0.037734926 0.2232575 0.18395905 -0.002528885 0.076290935 0.11110461 -0.22436844 -0.10449204 0.099874824 0.023868043 -0.08078121 -0.09796169 -0.028956302 0.114508495 -0.11497796 0.026261343 -0.08522373 -0.027753703 0.24785368 0.07215 0.015985185 0.006032831 0.3852945 -0.030016454 -0.04789319 -0.013526465 0.2850575 -0.17788078 0.039296757 0.041525632 -0.05611772 -0.31266996 0.0983584 0.114794776 -0.24454443 -0.044928387 0.1711997 -0.0005349059 -0.2191196 -0.089769326 -0.07303655 0.23532757 -0.047678716 -0.23810324 0.0021275682 -0.058333103 -0.30486074 -0.1937479 0.066321425 -0.007293843 0.042165097 0.044196073 0.3272182
수정테이프 -0.035925146 0.24871215 0.1905218 -0.26624468 0.1627871 0.07519583 -0.17969787 -0.035573367 -0.18387125 0.07245861 -0.13910232 -0.002781813 -0.030912535 0.13886158 -0.040178575 -0.11183547 0.12583545 0.072770104 -0.1532757 -0.238488 0.06697342 -0.15594986 0.10194586 -0.04926216 -0.25211474 -0.056846485 0.11476671 0.10087594 -0.16630433 -0.12013063 0.0933054 -0.009017517 -0.13282233 0.20920847 0.040003948 0.012769987 0.019288836 0.27899426 0.19206019 0.15378731 -0.01679276 0.14442796 -0.27622312 -0.13981792 0.12337987 0.27489257 -0.035039753 0.2278451 -0.05394092 -0.0006529758 0.2046987 -0.007814913 0.12524822 0.043397073 0.11691974 -0.28294757 -0.02312298 -0.11352011 0.23523526 0.053394824 -0.35836673 0.14514141 -0.10518151 -0.0073156552 0.2791548 -0.07853897 0.11187483 -0.10569539 -0.043711 0.33399987 -0.15380272 -0.057008866 0.096001275 -0.05321456 -0.20284182 -0.28278214 -0.010871054 0.14535493 0.12953633 -0.3466114 0.4547479 -0.1344653 0.19474705 0.1176314 0.1357201 0.027545443 0.19651653 0.04997625 -0.047915667 0.3403318 0.24649017 -0.23590304 0.031733792 -0.043362655 0.24209228 -0.14544499 -0.09252848 0.21123931 0.11681196 0.101129204 0.18073358 -0.06543435 0.16277553 -0.04848615 -0.17707956 -0.34832424 -0.33660367 0.11560273 0.082657725 0.14655408 0.0076542334 0.18735375 -0.087078854 -0.063431434 -0.01524575 0.099997744 -0.26204 0.100528814 0.14101037 -0.08615333 -0.06747552 -0.24960603 -0.053749703 -0.045018584 0.2978764 -0.18382862 -0.13556345 -0.021757072 -0.009450887 0.044211846 0.047058415 0.005514494 -0.13052046 -0.025612598 0.1970783 -0.12493084 0.049773384 0.2291428 -0.07333221 -0.1315526 -0.1089997 0.112605855 0.14285818 -0.040931676 0.024112422 0.28215176 0.27914116 0.05431639 -0.03271121 0.08194676 -0.08679219 0.21469176 0.1998616 0.38653818 -0.039131615 0.21554051 -0.2782589 0.22764722 0.35305005 0.12503596 0.2447903 0.1491798 -0.056187715 -0.15505995 -0.05663731 0.35601413 0.0075700935 -0.09481112 -0.18491879 -0.15194358 0.0020294427 -0.20565273 -0.04430813 -0.16678683 0.077003926 -0.22317082 -0.20010675 -0.09189743 0.048944667 0.07428194 0.13463075 0.16384204 0.019814618 0.13029614 -0.082950786 0.450466 -0.07132442 0.08818986 -0.11258023 -0.045206595 0.045583174 0.08167449 -0.02980302 0.45841476 0.28826505 -0.173024 0.29615062 -0.10229589 0.04352785 0.17961055 0.04396275 0.2336596 -0.16460757 0.083223775 -0.12657365 0.08839602 -0.21000852 0.11347933 -0.17302853 0.15548186 0.00012410116 0.22714359 0.25120795 -0.13014328 -0.18102662 0.18741453 -0.0028758703 -0.2509394 0.0071013505 0.1939199 -0.07898957 0.024502225 -0.027277451 0.0405202 -0.11024239 -0.12139226 -0.19622725 -0.15392825 0.14271718 -0.05954234 0.04563158 0.18958502 0.122087345 0.15745534 -0.15793438 -0.25177762 0.14058462 -0.12057135 0.029804528 -0.20506516 -0.034178138 0.15116486 0.03423444 0.19546169 0.30216402 -0.105899714 0.0997847 0.07993538 -0.06478541 0.2444204 -0.094718926 0.08589591 0.0454837 0.10994131 -0.04815142 0.024424054 0.01433859 -0.09102654 -0.10554096 -0.11547456 0.17737922 -0.022230607 -0.02393452 -0.1157938 0.073791504 -0.032608517 -0.05948668 -0.24291551 -0.059275825 0.30559096 0.040517613 0.017144186 -0.10079857 -0.115097985 -0.1539989 -0.12668048 0.32620415 -0.14639117 0.10158624 0.0009538553 0.12287304 -0.22400783 -0.21015213 0.12409833 -0.19332778 -0.22304225 -0.06255332 0.027437594 0.104333706 0.13087484 -0.2452248 0.198814 -0.13238615 -0.16823903 -0.22887735 0.27329668 -0.2470695 0.27334988 0.020144602 0.46072978
분말차 -0.066643015 0.17071016 0.19106902 -0.20257393 0.06372547 -0.017918292 -0.107026815 -0.1639683 -0.23163378 -0.033938963 0.10493082 0.26667607 0.047715496 0.05067042 -0.18179114 -0.24363045 0.07588165 0.069091156 -0.024440283 -0.17001778 0.16899607 -0.11494545 -0.22298495 0.13290708 -0.18528973 -0.19529273 0.07816571 -0.19547838 -0.21636213 -0.08338288 0.096686125 -0.059855685 -0.20445947 0.040705267 0.15434211 -0.037751645 0.1026002 0.1473718 -0.05693256 -0.013825118 -0.04190846 0.016352389 -0.16027166 -0.21549886 0.01976499 -0.058928136 0.05849405 0.2825762 0.026809715 0.08804443 -0.13196698 0.10697743 -0.04331845 -0.026217883 -0.067161195 -0.029538043 -0.18156631 -0.0043977955 0.30816206 0.05841212 -0.41170946 0.2632443 -0.19398326 -0.03553564 0.21140145 -0.07986268 0.11829754 -0.0146371955 -0.0447542 0.22025639 -0.00857102 0.12872192 0.15544824 -0.047297858 -0.104861125 -0.22983527 -0.24635121 0.08382527 0.03614721 -0.32983434 0.26595506 -0.18912008 0.06990704 0.04772269 -0.02508383 0.21286021 0.031280614 0.17050326 -0.08477162 0.23696913 0.34803653 -0.16988899 0.15812586 0.078875385 -0.037344333 -0.048507784 -0.18440059 0.18925577 0.23654585 0.2512507 0.12233788 -0.049037963 0.2687296 -0.03739383 -0.056260433 -0.10959006 -0.1623526 0.030521255 -0.03688198 0.20272326 0.0794479 0.27458206 0.16984649 -0.09777085 0.10510031 -0.10003235 -0.24740008 0.27126795 0.1049708 -0.32459706 0.015167695 -0.12508088 0.019784112 0.0153698595 0.10215345 -0.16637515 -0.098317675 0.048798874 0.30684412 -0.065874614 0.18765245 -0.048749972 -0.21134299 -0.093297005 -0.010520669 -0.13879375 0.10464223 0.15828905 -0.047573037 0.028200483 -0.18992703 0.11590655 0.054296955 0.04040487 0.045949664 -0.031755228 0.08248187 -0.03913505 -0.033287786 0.06064309 -0.04989442 0.13590635 0.05812584 0.13202654 -0.012377125 -0.011357607 -0.12168141 -0.07079498 0.43540406 0.1271776 0.19060668 -0.062259946 -0.03550029 -0.22887468 -0.048978217 0.13094002 0.13078776 0.0032840162 -0.09412895 -0.23694777 -0.15185449 -0.26512423 0.08411412 -0.21325661 -0.26580426 -0.3155288 -0.14441255 -0.10920268 -0.06835126 0.0701714 0.13138705 -0.00938095 0.002100999 -0.053479146 -0.08887623 0.29072443 -0.030668616 0.19540499 0.09818182 -0.018201321 0.14375013 0.06287604 -0.022596955 0.41305628 0.21159266 -0.06475601 0.27083808 0.00863786 0.031049112 0.28539345 0.060539987 0.16551204 -0.13155024 0.12387818 0.034825172 -0.07636195 -0.088794656 -0.050001297 -0.3847603 0.06805571 0.3953205 0.1764359 -0.077189796 -0.06930296 -0.12702024 0.2591359 -0.12943077 -0.18147106 0.018813144 0.2255615 -0.10105462 0.02336249 0.17140923 -0.051753804 -0.1290543 -0.09678524 -0.07445519 -0.19947588 0.120316334 -0.07248281 -0.043694198 0.21527453 -0.060638472 0.27219787 -0.12309054 -0.24036224 0.038336635 0.0020523015 -0.27324718 -0.21420401 -0.016913282 0.018469777 -0.021849737 0.21385655 0.17681192 0.025064353 0.3023556 0.26126167 -0.12598652 0.307439 0.042780243 -0.023728706 0.20515317 -0.09360397 -0.1873008 -0.2747078 0.02160405 -0.080810465 -0.049368743 -0.10734663 0.087415405 -0.06812321 -0.018610928 -0.12430116 -0.012952107 -0.16228566 -0.049093444 -0.22692676 -0.004770889 0.31671697 -0.005043366 -0.17933756 -0.20737289 -0.06538704 -0.16315214 -0.0074107903 0.038829118 -0.033126056 -0.11955736 0.0066047506 0.09681027 -0.26235053 -0.27124628 0.09797652 -0.07778127 -0.19897972 0.0003186397 -0.10023696 0.23260738 0.049376797 -0.17731799 0.33125892 -0.033019252 -0.094386674 0.12383916 0.2189038 -0.0183188 0.21093528 -0.045677762 0.21626666
커터칼 0.01302095 0.13394055 0.27697828 -0.17805691 0.056804556 0.103217155 -0.21683452 0.044476967 -0.2267441 -0.11938652 -0.088051744 -0.085658856 0.07915328 0.13601977 -0.041484993 0.1185454 -0.16973445 0.037895314 0.19473685 -0.17938101 0.084068805 -0.25691798 -0.0075714937 0.041531943 0.020959595 -0.0095348675 0.06530667 0.01993172 -0.28079388 -0.071788475 -0.0637057 0.17753953 -0.10045698 0.15975429 0.058927853 0.03947129 0.1763361 0.077531524 0.042165972 0.28760424 -0.14372383 0.11717399 -0.27551496 -0.31873274 0.19398306 0.23927458 0.023470376 0.026061175 -0.14433393 -0.05778781 0.13634248 -0.030009627 0.07395147 0.12851544 -0.017159635 -0.18737449 -0.09311328 0.06178587 0.15177396 -0.06549032 -0.16541338 0.14032355 -0.062909745 -0.03538041 0.36767736 0.19496453 0.26086402 -0.17996849 -0.084120795 -0.04585143 -0.021856591 -0.14555204 0.09885833 0.029153867 -0.2151413 -0.19302496 -0.005305257 0.172891 0.112236366 -0.24023283 0.39626193 -0.038856592 0.110313036 0.06181945 0.11213679 0.10024687 0.14388001 -0.01595183 -0.07565627 0.16682994 0.09716509 -0.038292017 0.10062676 -0.10485694 0.24952056 0.018038254 0.11241965 0.2527304 0.20940092 0.2233245 0.04376874 -0.13248001 0.19974285 0.012828551 -0.17801902 -0.13114013 -0.008280307 0.1260892 0.10677597 0.21958761 -0.049995817 0.17485556 -0.07339649 -0.09114614 -0.074543245 0.18163857 -0.17715083 0.2807551 0.1846345 0.05715338 -0.0890704 -0.19169228 0.07705389 -0.24176212 0.27028942 -0.030429978 -0.11166511 0.078947656 -0.124987006 0.2829351 -0.0053894687 0.11985637 -0.14495946 -0.02388917 0.23061985 0.05003326 0.14517699 0.20158134 0.06690537 -0.15280467 0.056292824 -0.0940481 -0.008175714 0.016588194 0.13033196 0.16979386 0.017880224 -0.124052055 -0.016422797 0.086029865 -0.085602514 0.22313212 0.16859576 0.23981287 -0.018303541 0.25541136 -0.25770557 0.23604417 0.17683099 0.11410457 0.15586825 -0.072085984 0.06425659 -0.037637416 -0.08765515 0.174911 0.33025473 -0.05692627 -0.06706599 -0.27474278 -0.03646778 -0.30906627 0.09898181 -0.20333171 -0.11822528 -0.03329263 -0.12597021 -0.031611428 -0.09277257 0.14693736 -0.0073872195 0.27492872 -0.02942168 -0.038196284 -0.06187062 0.13498822 -0.021650823 -0.1621012 -0.32731432 -0.06484701 0.12572399 -0.21925549 -0.19764324 0.17928071 0.29083145 -0.23064946 0.30864927 -0.25721103 0.17944862 0.15261751 -0.045275416 0.14885278 0.065143384 -0.1885925 -0.09284975 0.013481197 -0.32373616 -0.028049456 0.07169438 0.10857521 0.11952485 0.19091477 0.094238654 -0.012953807 -0.17801178 0.14902122 -0.23324114 -0.21155396 -0.07798465 -0.04717873 -0.057703156 0.0162929 0.053303402 0.006423052 -0.12863268 -0.04803562 -0.16537583 -0.08539558 0.006840615 0.050403 -0.1663695 -0.018101314 -0.10558237 0.13053603 -0.0023387647 -0.11258339 -0.047290575 -0.18121882 0.06053503 -0.1512669 -0.078001276 0.018573752 0.10156292 0.053794462 0.0250917 -0.14908966 0.032990094 0.121387795 -0.16653863 0.20032316 0.21127361 0.07101078 -0.07163664 -0.18617633 -0.04351109 0.01850562 -0.25808603 0.11615915 -0.09558099 -0.04778463 -0.07123504 -0.11735186 0.11025464 0.13420622 0.16782904 -0.0987433 0.20025161 -0.13984211 0.10060966 0.38776258 0.2285228 -0.15264688 0.03644878 -0.052288063 -0.26404354 0.018007841 -0.012697243 -0.1906511 -0.004855256 0.025437903 0.22990525 -0.0993549 -0.1306189 0.30140573 0.042069606 -0.36550626 -0.26528236 0.035188492 0.34332862 0.2509408 0.038590614 0.28677845 -0.2333085 -0.121443436 0.0123875085 -0.088153236 -0.2721844 0.193374 -0.026604077 0.43821418
형광펜 0.048934087 0.17939138 0.2806596 -0.27082646 0.16301349 0.06178217 -0.15639593 0.012919016 -0.30948344 0.04773091 -0.11079129 -0.054313317 -0.022087252 0.07180839 -0.19945474 -0.072518826 0.060726892 0.15383528 -0.059210286 -0.22671558 0.055144127 -0.1084972 -0.11924536 0.12482635 -0.21933852 -0.18939896 0.056004144 -0.06870674 -0.15706056 -0.1570261 0.09083058 0.088635385 -0.01900942 0.097217865 0.005026376 -0.00039265834 0.050703578 0.36466497 0.15709718 0.021579683 -0.002842665 0.16675779 -0.25884715 -0.13412976 -0.073962405 0.28047428 0.0364875 0.32024816 -0.049824625 -0.07267736 0.17978807 0.003539245 -0.06942237 0.013387768 0.12670784 -0.17338917 -0.0675322 -0.10290467 0.17809132 0.058496065 -0.35399508 0.098508865 -0.16683634 -0.066337526 0.28453547 -0.08498812 0.10085621 -0.06149755 0.013689042 0.15604322 -0.24325773 -0.079712346 0.11570454 0.05363166 -0.17224054 -0.2387124 0.09743452 0.21254088 0.16242538 -0.3174646 0.56069875 -0.03776301 0.19276676 0.015793826 0.12143755 0.09261745 0.14769696 0.004082833 -0.15167736 0.3587156 0.2019563 -0.21749109 0.0026578174 0.04780285 0.1645736 -0.060248546 -0.22211333 0.2283512 0.017639862 0.306723 0.16341206 -0.05059479 0.23984732 -0.093675636 -0.14313975 -0.43382388 -0.265876 0.054271292 0.13064851 0.18154192 0.107432954 0.1416795 -0.089106075 -0.16271792 -0.061886624 0.13284974 -0.339681 -0.07913903 0.10801411 -0.1658372 0.103599764 -0.16255765 0.024385558 -0.07800908 0.1728169 -0.15129595 -0.020111924 -0.017430656 0.07492682 -0.011300847 0.044409435 -0.039079353 -0.10982103 -0.016763853 0.09033564 -0.17354836 0.098051086 0.24544232 -0.19223315 0.00233309 -0.068110384 0.06964175 -0.0012807917 0.07973467 0.08778726 0.22263305 0.19262588 0.053479042 -0.03255518 0.1461276 -0.06439891 0.2194514 0.09270636 0.42842326 0.062208295 0.1258389 -0.3023823 0.15877667 0.37807617 0.171899 0.12022617 -0.020504156 -0.2172234 -0.25628638 -0.019018633 0.3073372 0.01624024 0.05188215 -0.17448573 -0.13751207 -0.022054967 -0.23031709 0.029229239 -0.20342179 0.026682679 -0.19041371 -0.22734553 -0.13975266 0.12486992 0.02980454 0.22921868 0.05020747 0.090333 0.21918386 0.04182784 0.51549417 -0.06492853 0.040447302 -0.14258602 -0.17832297 0.094392054 0.008100861 -0.1053575 0.4374007 0.2245869 -0.19108813 0.1626696 -0.15509859 0.102264866 0.2424212 -0.04267658 0.23810193 -0.1753798 0.008915499 -0.1368747 0.099381484 -0.08297064 0.18133594 -0.23300387 0.1812393 0.09901564 0.23902677 0.2977869 -0.19839421 -0.102673784 0.2291696 -0.070748255 -0.16113532 0.061122153 0.31906322 -0.07363669 0.06331847 0.0071060658 0.14707342 0.01192305 -0.12261867 -0.2717023 -0.11859441 -0.046565883 -0.17204827 -0.03907236 0.13210028 0.17552413 0.26338708 -0.09704622 -0.19569798 0.112716146 -0.12726311 0.07773169 -0.1778343 -0.17826186 0.0034483485 -0.04482339 0.22131805 0.2977644 -0.05411101 0.06431753 -0.0007236047 0.0064169313 0.26219392 0.056663226 0.046872832 -0.0019806635 0.07180339 -0.042864695 -0.04479188 0.096699126 -0.12259154 -0.12529312 -0.061123375 0.18597616 -0.072072454 0.029765539 -0.061711274 -0.02241438 -0.06344687 -0.11126655 -0.22411916 0.008166323 0.27190962 0.11728786 -0.03653232 -0.025181971 0.062461957 -0.23672327 -0.025446726 0.13488108 -0.12668434 -0.049352996 -0.037159096 0.014979398 -0.3077217 -0.16098218 0.14368749 -0.06762412 -0.31781238 -0.06290573 0.05551746 0.26021487 0.072522566 -0.20388497 0.35796693 -0.10557803 -0.26053172 -0.17015074 0.17794785 -0.108829364 0.35405764 -0.055085037 0.31761107
케이블타이 -0.006148037 0.2214591 -0.024111727 0.0015519059 -0.107454896 -0.15633273 -0.23046686 0.17323911 -0.25062546 -0.022979256 0.014392908 0.115472816 -0.20971522 0.021400847 -0.17339095 0.019550722 0.019638672 -0.022574656 0.020636408 -0.043061204 0.042920563 -0.24667661 0.07230722 0.018512301 0.066932544 0.072155 0.17486778 -0.05602666 0.1979977 0.063564 0.053131156 0.18274671 -0.23064145 0.039989807 0.120444804 -0.1748701 0.16700777 -0.06768515 0.33623222 -0.10721722 -0.14971657 -0.08038405 -0.4103801 -0.16301271 -0.0054365844 -0.015025051 -0.039825156 0.20671658 -0.28088734 -0.0177834 0.056190662 -0.40402633 0.21108443 0.11937076 0.03903537 -0.25037768 0.028404886 -0.1141252 -0.055112444 0.026054336 -0.074726336 0.27149612 -0.031250134 0.23388404 0.020801978 -0.073148966 0.20419198 0.17045751 -0.03938508 0.40533143 -0.0827307 -0.076192744 0.1826085 0.15929617 -0.18689796 -0.044896312 0.12964672 -0.17559803 0.014562801 0.2012745 0.31094912 0.09494267 -0.046899375 0.007219506 0.019366933 0.23240842 -0.0062660677 -0.061627585 -0.24392928 0.39877495 -0.2263078 -0.064262204 0.26744005 0.21773452 0.088014975 0.009624772 0.1804877 0.10937496 0.07253683 -0.11580565 0.035546787 -0.095598154 0.01691316 -0.080001496 -0.21794446 -0.07702658 0.11799847 0.23636039 -0.09530641 -0.010720593 -0.103727214 -0.0011722244 -0.19965467 -0.031582523 -0.008966484 0.06441933 -0.12044464 0.09649519 0.23277633 0.10192273 -0.026610138 -0.04092813 -0.14615014 -0.28837612 -0.047880642 -0.1148712 -0.116237044 0.02852992 -0.06718754 -0.15727305 -0.127625 -0.092555396 -0.22183 0.21346608 0.19313905 -0.123917885 -0.040346265 -0.1983401 -0.20971921 -0.13750139 -0.09892172 -0.11553407 0.10715153 0.013916076 0.042659663 0.076952204 0.15387347 0.0074143 -0.16568926 0.0092810625 0.15983345 0.18573822 -0.0028413113 -0.027689254 0.07752308 0.09156116 -0.30957103 0.01977559 0.070504904 0.11892047 -0.16649239 0.0055340603 -0.1286805 -0.20037508 -0.06339048 0.11215684 -0.019523934 0.04669958 0.035307758 -0.14268203 0.28533804 -0.22339989 0.042041827 -0.09131782 -0.10944229 0.148692 -0.11670981 -0.15771443 -0.15101092 0.104753345 0.36085078 -0.103210725 0.223456 -0.14418037 -0.015933005 0.025641028 0.06491049 0.07198252 0.18420961 0.39917523 -0.2642772 -0.29112566 0.06285199 0.16929047 0.31762308 0.06231072 0.03852543 0.060463484 0.1376064 0.08022095 -0.20650749 -0.07735472 0.0056269644 0.078132436 0.16146883 0.2459571 -0.07523374 0.07635201 -0.2801757 0.06463013 -0.0476773 0.002817635 -0.07601954 -0.056606114 -0.37935618 -0.027137833 -0.32920834 -0.21762213 -0.051748104 0.0041428823 -0.24244355 0.1386149 0.08538351 -0.023929687 -0.18050835 0.0024402335 0.25897616 0.007027495 -0.17326437 0.16813771 -0.051538065 0.036394417 0.20921902 0.009914603 0.04812416 -0.1943709 0.2097096 -0.06085058 -0.2375552 -0.05073004 -0.124122694 -0.05158933 -0.11192677 -0.091044195 0.2853139 -0.063540615 -0.2167108 -0.07833031 -0.0810857 0.10934051 -0.1887443 -0.11625988 -0.06550548 0.019344121 -0.05291765 0.32925937 -0.12205373 0.2688769 0.17470887 -0.046530727 -0.0051154145 -0.120465904 -0.18875323 -0.24898268 -0.004091681 -0.23688006 -0.093598396 0.3172179 0.027113635 0.1549921 -0.17689645 0.063516274 0.071141936 -0.09322092 -0.24685964 0.10677301 -0.11846406 0.05445666 -0.22485512 0.06885545 -0.1251284 -0.20554294 0.036149696 -0.18664603 -0.118576765 -0.31712884 0.05796114 0.23539832 0.24224605 0.10722116 -0.13020702 0.19669543 -0.033305652 -0.15673912 0.18119144 0.11426562 -0.0008243458 -0.132536 0.036397755 0.3327685
데이터다중화장치 -0.0010657151 -0.0012242917 0.0016571803 -0.0005121772 0.00044099614 -0.0003284485 0.0005807668 0.0008031592 -0.0010080563 -0.0008072113 0.0006585205 -0.00044393638 -0.00087791943 0.0013332523 -0.00084885303 0.00070545316 0.0016610575 -1.8166163e-05 -0.0014581875 -0.00037565816 0.0005383279 0.0015985672 -0.00076378265 -0.0009082119 -0.0011463827 0.00016031537 -0.0009825603 0.00011341969 -0.0013701733 0.0013424279 0.00097324775 -0.001217359 0.0010302782 -0.00011332582 -0.0004694069 -0.00026973756 0.00020540628 -0.00021151658 0.0012991964 -0.0007340386 -0.0015017407 0.0007034646 0.0011406181 0.0016524555 -0.00037849994 0.0014373945 -0.0009429046 -0.0008907397 0.0009819107 0.00052706787 0.00092804775 -0.0015973706 -0.0006411169 0.0012773217 -0.0010102664 0.00042297505 -0.0008588505 8.613856e-05 0.0013419447 -0.0012522663 -8.852738e-06 -0.00076499017 0.00011449125 -0.00035068847 8.621549e-05 0.0013495634 0.00043178312 0.0011881492 -0.0009388803 -0.00083840766 -0.00014484866 0.0010727127 -0.0009362444 0.000183775 0.0007254353 0.00070534844 -0.0011648186 0.0011017886 0.0006788855 0.0011638543 -0.0007421912 -0.0016407555 -0.0016118299 -0.00039979725 0.0007981793 -0.0010450516 -0.0016277442 0.0016444189 0.0006280269 0.0016506158 0.0011028666 -0.0003345834 0.00017621269 0.00028810411 0.0014391318 -0.0001044784 -0.000121503996 0.00040134933 0.0013522839 -0.00078825897 0.00031314403 -0.00030385368 -0.00025660623 -0.0001935978 -0.00031243937 -0.00013963308 0.0013536758 -0.00083803426 -0.0011682513 -0.00027970434 -0.0006815902 0.00025393523 0.001592291 -0.001373863 -0.0010689937 -0.0007399969 0.00080383336 0.0012846619 0.00015725681 -0.001039035 0.0010002323 0.00029998188 -0.00012399873 -0.00087380287 0.0003950252 0.0010706633 -0.0010561505 0.0010470983 0.0011872385 -0.0010413686 0.0011784976 -0.00095077045 -7.925109e-05 0.0014122089 -0.0010587638 0.00060090027 0.0012270114 -0.0003260953 -0.0016261925 0.00017175564 -0.0014739572 -0.00065913 0.0012100985 -0.00045963255 0.00039886293 -0.0007155804 0.00030037935 0.0005801861 -0.0011089431 0.00023115137 2.7606222e-05 0.0004312306 -0.0010450354 -0.0008559219 -0.00033021724 0.0004228764 0.00124062 -0.0016526773 0.0011013477 0.00068683934 0.0007409991 -0.0012235986 0.0016617067 0.0008480308 0.0009448406 -0.00015961163 0.0015389998 0.0016021801 0.00046791078 0.0011946787 0.0009229561 -0.0007834178 -0.0003454902 -0.00031997793 0.00013816185 -0.0009993921 -0.00078370393 0.001514754 0.0002931278 -0.00159987 -0.0009601658 0.00093448645 -0.0009647866 0.0015649849 0.0012044531 0.0012598187 0.00073169376 0.0015748242 -0.0011290973 0.0014887608 -0.00031543104 -0.0014191212 -0.001456744 -0.0007671609 0.0014827446 0.00029667836 0.000109246546 0.00162029 0.00031989408 0.00015736667 0.0016617766 0.00022965686 -0.0013935852 -0.0005491632 0.0010118014 0.0016258928 -0.00092870154 -0.0008354844 -0.0007529968 0.0012834991 0.0007465876 -0.0011470057 -0.0015346494 0.00033302134 6.506654e-05 -0.00038096245 -0.00053002505 -0.0006976384 -0.0003578844 -0.0010641073 0.0010090738 -0.0010806386 -0.0013617291 9.9998215e-05 0.00056278636 -0.00014649893 -0.0014028447 0.0014575099 0.0015023777 -0.0012281797 -0.0011773577 0.0011334971 -0.001083485 8.602044e-05 0.001462428 -0.00028990587 0.0008708541 0.0001969879 -0.00029828487 0.0014425758 -0.0006188755 0.0007786845 0.0006043397 -0.0015530696 -0.0015029375 0.00021388245 -0.00085276656 -0.0016448874 0.00066654285 0.0007507037 0.0015745661 0.00022072204 0.0013865456 -0.00093487115 0.00074540585 -0.0010057449 -0.0015570214 -0.0012391052 -0.001368303 -0.0009130717 -0.0013965039 -0.001444433 0.0016176734 0.0011191544 -0.0009589365 0.00080975227 0.001113984 0.0014653257 -0.00095064356 -0.0015230748 0.0014976466 0.0013950713 0.0008990566 0.0015258414 -0.0012677693 -0.0011166398 -0.00045573548 0.0014143497 0.00071625033 0.001040403 0.00090979185 -0.000104442515 -0.001097226 -0.001472854 -0.0007256726 -0.0010016087 9.213865e-05 -0.00024191229 -0.0013443672 -0.00058396196 0.0006011217 0.0015403728 2.2803659e-05 -0.0010168122 0.0009398142 0.0011094778 -0.00033205966 -0.0006805512 0.0005744566 0.0013754719
유성펜 0.057625856 0.19514365 0.29278296 -0.29921195 0.18254387 -0.0074412576 -0.2845785 0.053541616 -0.10861961 0.06490158 -0.058944616 -0.109588206 0.19790958 0.2151973 -0.24160378 -0.08929847 -0.001837649 0.17062613 -0.109074436 -0.33297879 0.09536452 -0.1207562 -0.103563145 0.10275498 -0.20127578 -0.10646407 0.07541976 -0.04895006 -0.24029078 -0.11405892 0.12088939 0.13373333 -0.14921652 0.047702886 -0.10536742 0.108795546 0.10018735 0.21336518 0.12632059 0.13596764 0.0032997024 0.22698699 -0.15209724 -0.12857798 0.011313005 0.3475467 -0.0014154257 0.2983661 0.077212356 0.0010679342 0.060693882 -0.038173955 -0.07279038 -0.06932422 0.15619946 -0.23294263 -0.042871732 0.006266861 0.250486 0.012858639 -0.20062384 0.20433147 -0.02980847 -0.10918605 0.1982326 -0.046708945 0.008051648 0.06109345 -0.015308413 0.14658433 -0.22897969 -0.11656514 0.00893267 0.0788421 -0.17454207 -0.10030257 0.09256551 0.035771687 0.09164597 -0.43499187 0.4574708 -0.17787546 0.3013916 0.07885257 0.23011209 0.12172087 0.1549837 -0.06923417 -0.28133172 0.35577857 0.1091969 -0.16636251 0.13859794 -0.16405307 0.065540954 -0.014938395 -0.26518565 0.1458417 0.12950738 0.21343751 0.21622118 0.20016077 0.08899584 -0.16616938 -0.13682666 -0.44196808 -0.13575615 0.1502031 0.024779063 0.092378795 0.15567245 0.1893347 -0.14367075 -0.082725696 0.11954222 0.05050648 -0.4501762 -0.055874772 0.037742242 -0.13311209 0.013908569 -0.080447726 0.11815329 -0.17222229 0.1649998 0.007573089 -0.041218523 -0.02681801 0.14138162 -0.027115062 0.06974723 -0.0034938315 -0.14575689 -0.18605024 0.047767464 -0.20543186 0.07087928 0.18439448 -0.08718035 -0.09021464 -0.29450834 0.11762593 -0.0056795846 -0.02712249 0.107614264 0.2249627 0.24216619 0.0074768174 -0.22028342 -0.027790515 -0.016516423 0.17234437 0.13906276 0.46189538 -0.11181264 0.11171627 -0.22336794 0.046791825 0.28434598 0.20995148 0.27000207 0.035928775 -0.10556296 -0.2990455 0.01737416 0.16057254 0.10596141 0.023686284 -0.15810513 -0.19910757 0.0075101852 -0.12587976 -0.0641955 -0.26691252 0.11370364 -0.116329364 -0.30520925 -0.11481155 0.13562033 -0.072611675 0.16161653 0.051676102 0.07301825 0.02964281 -0.07354562 0.3269346 -0.1529993 0.2044051 -0.02137185 -0.2251833 -0.019653631 0.075837955 0.053743154 0.28538546 0.28212866 -0.19192354 0.21801123 -0.16323757 0.064255975 0.12517352 -0.16143802 0.07228589 -0.12110088 0.13080245 -0.16652657 0.12110948 -0.04186806 0.12599014 -0.28419694 0.12415742 0.08017489 0.32106754 0.031987187 -0.11873033 0.052959528 0.020853816 -0.08050014 -0.3022417 0.23462987 0.25964752 -0.117585175 0.088211305 0.10457176 0.018033633 0.01614782 0.019343015 -0.1809775 0.01082644 0.07722434 -0.07288788 -0.074967764 0.04453737 0.15982535 0.31857714 0.03445031 -0.1066998 0.068891145 -0.1576817 0.054698948 -0.22418864 -0.2740949 0.03905436 -0.101280995 0.15502508 0.32922405 -0.16540402 0.014198132 0.046800878 -0.1034555 0.33355418 0.07282777 0.05898768 -0.0005087287 -0.081364475 -0.11741857 -0.033563927 0.019915557 -0.08665421 -0.06564696 -0.14449294 0.17437324 0.11930713 -0.0035245863 -0.110828705 -0.058665704 -0.05587225 -0.1021354 -0.18857762 -0.12925164 0.15244184 0.17801765 -0.13734122 -0.0073522683 0.0180797 -0.3225566 0.25127408 0.26462746 -0.1748211 -0.09191228 -0.054428622 -0.017776461 -0.33445075 -0.11997918 0.07781636 -0.12663677 -0.41391534 -0.26522884 0.036456328 0.3227453 -0.18390335 -0.0918282 0.34172794 0.041694757 -0.08982 -0.13738318 0.009951827 -0.07478665 0.34956476 -0.03969745 0.3400654
